{"learner":{"attributes":{"scikit_learn":"{\"_estimator_type\": \"classifier\"}"},"feature_names":["RSI","ATR","ROC","BBM","BBB","BBP","OBV","volume_change","fundingRate"],"feature_types":["float","float","float","float","float","float","float","float","float"],"gradient_booster":{"model":{"cats":{"enc":[],"feature_segments":[],"sorted_idx":[]},"gbtree_model_param":{"num_parallel_tree":"1","num_trees":"100"},"iteration_indptr":[0,1,2,3,4,5,6,7,8,9,10,11,12,13,14,15,16,17,18,19,20,21,22,23,24,25,26,27,28,29,30,31,32,33,34,35,36,37,38,39,40,41,42,43,44,45,46,47,48,49,50,51,52,53,54,55,56,57,58,59,60,61,62,63,64,65,66,67,68,69,70,71,72,73,74,75,76,77,78,79,80,81,82,83,84,85,86,87,88,89,90,91,92,93,94,95,96,97,98,99,100],"tree_info":[0,0,0,0,0,0,0,0,0,0,0,0,0,0,0,0,0,0,0,0,0,0,0,0,0,0,0,0,0,0,0,0,0,0,0,0,0,0,0,0,0,0,0,0,0,0,0,0,0,0,0,0,0,0,0,0,0,0,0,0,0,0,0,0,0,0,0,0,0,0,0,0,0,0,0,0,0,0,0,0,0,0,0,0,0,0,0,0,0,0,0,0,0,0,0,0,0,0,0,0],"trees":[{"base_weights":[-1.9368724E-7,2.6490548E-1,-1.22944325E-1,4.024641E-1,-1.3265373E-1,-2.474892E-1,1.9437848E-1,-9.717649E-2,6.164308E-1,5.6020677E-2,-2.2530265E-1,9.4560355E-1,-2.7160716E-1,7.843016E-2,9.882055E-2,3.6483836E-1,-7.082012E-1,1.4220153E-1,9.9367577E-1,-8.242436E-1,-6.5549277E-3,1.1574515E-2,6.0502518E-2,-5.062486E-1,-1.07902355E-1,7.353802E-1,-4.6986803E-2,5.0732244E-2,-1.3548461E-2,-6.357522E-2,5.036513E-3,2.386052E-2,-1.5234316E-2,-8.560991E-3,5.31914E-2,-5.930347E-2,2.0500848E-2,1.0377385E-2,-3.933553E-2,-1.4923866E-2,-5.388133E-2,3.712355E-2,-1.0287314E-2,4.7002663E-3,5.9342623E-2,3.0990316E-2,-1.0174694E-2],"categories":[],"categories_nodes":[],"categories_segments":[],"categories_sizes":[],"default_left":[0,0,0,0,0,0,0,0,0,0,0,0,0,0,0,0,0,0,0,0,0,0,0,0,0,0,0,0,0,0,0,0,0,0,0,0,0,0,0,0,0,0,0,0,0,0,0],"id":0,"left_children":[1,3,5,7,9,11,13,15,17,-1,19,21,23,-1,25,27,29,31,33,35,37,-1,-1,39,41,43,45,-1,-1,-1,-1,-1,-1,-1,-1,-1,-1,-1,-1,-1,-1,-1,-1,-1,-1,-1,-1],"loss_changes":[1.1789018E1,6.32837E0,9.818979E0,9.199778E0,3.76408E0,5.3784237E0,9.069451E0,7.7388945E0,1.0592005E1,0E0,3.7938342E0,4.2801714E-1,6.6765966E0,0E0,6.2295346E0,6.7816563E0,5.481904E0,4.2996125E0,2.8991508E0,3.9471498E0,3.8795252E0,0E0,0E0,8.195639E0,8.846965E0,3.5077372E0,5.8915043E0,0E0,0E0,0E0,0E0,0E0,0E0,0E0,0E0,0E0,0E0,0E0,0E0,0E0,0E0,0E0,0E0,0E0,0E0,0E0,0E0],"parents":[2147483647,0,0,1,1,2,2,3,3,4,4,5,5,6,6,7,7,8,8,10,10,11,11,12,12,14,14,15,15,16,16,17,17,18,18,19,19,20,20,23,23,24,24,25,25,26,26],"right_children":[2,4,6,8,10,12,14,16,18,-1,20,22,24,-1,26,28,30,32,34,36,38,-1,-1,40,42,44,46,-1,-1,-1,-1,-1,-1,-1,-1,-1,-1,-1,-1,-1,-1,-1,-1,-1,-1,-1,-1],"split_conditions":[3.206316E-1,-6.6417665E6,8.4018955E0,1.2714239E1,-8.895E-5,3.8771927E2,-2.1616326E7,1.0730172E3,1.9936421E3,5.6020677E-2,-5.4566175E6,4.1759443E0,3.273687E4,7.843016E-2,5.91302E1,4.311478E1,-5.5229287E0,3.6775852E1,-6.393094E-1,6.638566E-1,-3.1902755E6,1.1574515E-2,6.0502518E-2,1.603605E1,1.5133921E3,5.615228E1,-3.6801907E-1,5.0732244E-2,-1.3548461E-2,-6.357522E-2,5.036513E-3,2.386052E-2,-1.5234316E-2,-8.560991E-3,5.31914E-2,-5.930347E-2,2.0500848E-2,1.0377385E-2,-3.933553E-2,-1.4923866E-2,-5.388133E-2,3.712355E-2,-1.0287314E-2,4.7002663E-3,5.9342623E-2,3.0990316E-2,-1.0174694E-2],"split_indices":[5,6,2,4,8,1,6,1,1,0,6,4,3,0,0,0,2,0,7,7,6,0,0,4,1,0,7,0,0,0,0,0,0,0,0,0,0,0,0,0,0,0,0,0,0,0,0],"split_type":[0,0,0,0,0,0,0,0,0,0,0,0,0,0,0,0,0,0,0,0,0,0,0,0,0,0,0,0,0,0,0,0,0,0,0,0,0,0,0,0,0,0,0,0,0,0,0],"sum_hessian":[3.5997498E2,1.13742096E2,2.4623288E2,8.4494125E1,2.9247967E1,1.769877E2,6.9245186E1,2.5498228E1,5.89959E1,1.2499131E0,2.7998055E1,2.7498088E0,1.7423788E2,3.4997568E0,6.574543E1,1.4748975E1,1.0749253E1,2.674814E1,3.2247757E1,6.749531E0,2.1248524E1,1.2499131E0,1.4998958E0,7.074509E1,1.03492805E2,1.1499201E1,5.424623E1,6.9995136E0,7.749461E0,5.9995832E0,4.74967E0,1.524894E1,1.1499201E1,1.7498784E0,3.049788E1,5.249635E0,1.4998958E0,1.72488E1,3.999722E0,5.2996315E1,1.7748766E1,9.999305E0,9.34935E1,5.249635E0,6.2495656E0,9.749322E0,4.4496906E1],"tree_param":{"num_deleted":"0","num_feature":"9","num_nodes":"47","size_leaf_vector":"1"}},{"base_weights":[5.8882637E-4,2.5189918E-1,-1.16041325E-1,4.8312032E-1,2.5202561E-2,-2.3500381E-1,1.870113E-1,2.4224181E-1,9.6802425E-1,-1.8381594E-1,4.0515625E-1,9.176777E-1,-2.5833023E-1,7.543256E-2,9.516048E-2,5.171085E-1,-5.597543E-1,1.3937312E0,4.1798562E-1,8.047122E-2,-6.702148E-1,1.1482975E0,-8.3767354E-2,5.9185803E-2,1.071017E-2,-4.821064E-1,-1.0226149E-1,7.0386225E-1,-4.4265293E-2,7.779634E-3,5.7083685E-2,-5.6215186E-2,2.2132738E-2,7.685143E-2,1.0848715E-2,-2.4848396E-2,4.5838397E-2,-2.5074512E-2,2.3026783E-2,3.378724E-2,-4.2946562E-2,6.9180927E-3,7.4487E-2,-1.7019901E-2,6.03409E-2,-1.4194061E-2,-5.1389255E-2,3.5437196E-2,-9.779495E-3,7.363581E-3,5.9756245E-2,2.9584393E-2,-9.67822E-3],"categories":[],"categories_nodes":[],"categories_segments":[],"categories_sizes":[],"default_left":[0,0,0,0,0,0,0,0,0,0,0,0,0,0,0,0,0,0,0,0,0,0,0,0,0,0,0,0,0,0,0,0,0,0,0,0,0,0,0,0,0,0,0,0,0,0,0,0,0,0,0,0,0],"id":1,"left_children":[1,3,5,7,9,11,13,15,17,19,21,23,25,-1,27,29,31,33,35,37,39,41,43,-1,-1,45,47,49,51,-1,-1,-1,-1,-1,-1,-1,-1,-1,-1,-1,-1,-1,-1,-1,-1,-1,-1,-1,-1,-1,-1,-1,-1],"loss_changes":[1.0607123E1,6.0006595E0,8.955295E0,6.3922005E0,4.7583094E0,5.0216637E0,8.382538E0,8.93925E0,3.748272E0,5.033284E0,7.814399E0,4.4812465E-1,6.0693493E0,0E0,5.6951632E0,6.537975E0,6.4373016E0,1.3523903E0,4.790037E0,5.979664E0,4.071533E0,2.7241745E0,4.9631114E0,0E0,0E0,7.465416E0,8.046847E0,3.2410655E0,5.359556E0,0E0,0E0,0E0,0E0,0E0,0E0,0E0,0E0,0E0,0E0,0E0,0E0,0E0,0E0,0E0,0E0,0E0,0E0,0E0,0E0,0E0,0E0,0E0,0E0],"parents":[2147483647,0,0,1,1,2,2,3,3,4,4,5,5,6,6,7,7,8,8,9,9,10,10,11,11,12,12,14,14,15,15,16,16,17,17,18,18,19,19,20,20,21,21,22,22,25,25,26,26,27,27,28,28],"right_children":[2,4,6,8,10,12,14,16,18,20,22,24,26,-1,28,30,32,34,36,38,40,42,44,-1,-1,46,48,50,52,-1,-1,-1,-1,-1,-1,-1,-1,-1,-1,-1,-1,-1,-1,-1,-1,-1,-1,-1,-1,-1,-1,-1,-1],"split_conditions":[3.206316E-1,8.003E-5,8.4018955E0,-5.616887E0,2.1191982E1,3.8771927E2,-2.1616326E7,4.0790512E1,2.5892428E-1,-1.2650726E7,-6.6417665E6,3.025048E-1,3.273687E4,7.543256E-2,5.91302E1,2.0375911E3,3.136E-5,5.648E-5,1.1235913E1,-3.68775E-2,-3.9144003E-1,2.2927346E3,5.7140577E-1,5.9185803E-2,1.071017E-2,1.603605E1,1.5133921E3,5.6553207E1,-3.6801907E-1,7.779634E-3,5.7083685E-2,-5.6215186E-2,2.2132738E-2,7.685143E-2,1.0848715E-2,-2.4848396E-2,4.5838397E-2,-2.5074512E-2,2.3026783E-2,3.378724E-2,-4.2946562E-2,6.9180927E-3,7.4487E-2,-1.7019901E-2,6.03409E-2,-1.4194061E-2,-5.1389255E-2,3.5437196E-2,-9.779495E-3,7.363581E-3,5.9756245E-2,2.9584393E-2,-9.67822E-3],"split_indices":[5,8,2,2,4,1,6,0,5,6,6,7,3,0,0,1,8,8,4,7,7,1,7,0,0,4,1,0,7,0,0,0,0,0,0,0,0,0,0,0,0,0,0,0,0,0,0,0,0,0,0,0,0],"split_type":[0,0,0,0,0,0,0,0,0,0,0,0,0,0,0,0,0,0,0,0,0,0,0,0,0,0,0,0,0,0,0,0,0,0,0,0,0,0,0,0,0,0,0,0,0,0,0,0,0,0,0,0,0],"sum_hessian":[3.5989255E2,1.1371146E2,2.4618108E2,5.5733982E1,5.7977478E1,1.7694597E2,6.9235115E1,3.823842E1,1.7495562E1,3.773505E1,2.024243E1,2.7492716E0,1.7419669E2,3.4966643E0,6.573845E1,2.8742706E1,9.495712E0,8.997779E0,8.497784E0,2.4990757E1,1.2744291E1,7.497679E0,1.2744751E1,1.4995165E0,1.249755E0,7.0714714E1,1.0348198E2,1.1496967E1,5.4241486E1,1.899626E1,9.746446E0,5.9967723E0,3.49894E0,7.7481103E0,1.2496682E0,2.9993992E0,5.498384E0,9.7467985E0,1.5243958E1,1.2497942E0,1.1494497E1,2.2494297E0,5.2482495E0,1.1244956E1,1.4997948E0,5.298678E1,1.7727932E1,9.998954E0,9.3483025E1,5.9994707E0,5.4974966E0,9.7495E0,4.4491985E1],"tree_param":{"num_deleted":"0","num_feature":"9","num_nodes":"53","size_leaf_vector":"1"}},{"base_weights":[1.796118E-3,2.6603246E-1,-1.000892E-1,3.485906E-1,-4.3909678E-1,-2.020825E-1,1.8007684E-1,1.8521309E-1,8.1495064E-1,-8.97426E-1,1.8248186E-1,8.9108604E-1,-2.2267234E-1,7.271605E-2,9.174283E-2,-3.007806E-1,3.5782346E-1,1.3526173E0,3.6345193E-1,1.1520707E-2,-1.2099301E0,-4.8371974E-1,5.8770806E-2,5.7469882E-2,1.0413318E-2,-4.2785296E-1,-8.433808E-2,6.747051E-1,-4.169955E-2,3.842507E-2,-2.4813866E-2,-1.0267627E-2,3.1355273E-2,7.380455E-2,1.8992247E-2,-9.850856E-3,4.2031925E-2,-7.329827E-2,-1.0841663E-2,1.1279388E-2,-4.441874E-2,-4.9005602E-3,-3.480132E-2,9.960768E-3,-1.5504166E-2,4.1933437E-3,5.459195E-2,2.825406E-2,-9.206357E-3],"categories":[],"categories_nodes":[],"categories_segments":[],"categories_sizes":[],"default_left":[0,0,0,0,0,0,0,0,0,0,0,0,0,0,0,0,0,0,0,0,0,0,0,0,0,0,0,0,0,0,0,0,0,0,0,0,0,0,0,0,0,0,0,0,0,0,0,0,0],"id":2,"left_children":[1,3,5,7,9,11,13,15,17,19,21,23,25,-1,27,29,31,33,35,-1,37,39,-1,-1,-1,41,43,45,47,-1,-1,-1,-1,-1,-1,-1,-1,-1,-1,-1,-1,-1,-1,-1,-1,-1,-1,-1,-1],"loss_changes":[9.737257E0,6.0122786E0,7.495861E0,6.7565117E0,3.295158E0,4.516594E0,7.7681303E0,5.848196E0,5.1466007E0,2.5681982E0,4.204182E0,4.2144704E-1,5.3313103E0,0E0,5.218064E0,4.244103E0,7.8560314E0,6.685257E-1,3.9077535E0,0E0,1.0160875E0,1.3478304E0,0E0,0E0,0E0,6.646078E0,7.3715544E0,2.9854922E0,4.8771915E0,0E0,0E0,0E0,0E0,0E0,0E0,0E0,0E0,0E0,0E0,0E0,0E0,0E0,0E0,0E0,0E0,0E0,0E0,0E0,0E0],"parents":[2147483647,0,0,1,1,2,2,3,3,4,4,5,5,6,6,7,7,8,8,9,9,10,10,11,11,12,12,14,14,15,15,16,16,17,17,18,18,20,20,21,21,25,25,26,26,27,27,28,28],"right_children":[2,4,6,8,10,12,14,16,18,20,22,24,26,-1,28,30,32,34,36,-1,38,40,-1,-1,-1,42,44,46,48,-1,-1,-1,-1,-1,-1,-1,-1,-1,-1,-1,-1,-1,-1,-1,-1,-1,-1,-1,-1],"split_conditions":[2.8995433E-1,4.450178E1,8.4018955E0,-5.616887E0,1.5476E-1,3.8771927E2,-2.1616326E7,1.603605E1,5.648E-5,1.1120063E-1,1.3194239E1,3.025048E-1,3.1874135E4,7.271605E-2,5.91302E1,5.3E-7,-1.9028433E-1,4.311478E1,4.188255E1,1.1520707E-2,4.7046986E1,-1.9984272E7,5.8770806E-2,5.7469882E-2,1.0413318E-2,5.3342605E-1,-1.3256309E7,5.615228E1,-3.6801907E-1,3.842507E-2,-2.4813866E-2,-1.0267627E-2,3.1355273E-2,7.380455E-2,1.8992247E-2,-9.850856E-3,4.2031925E-2,-7.329827E-2,-1.0841663E-2,1.1279388E-2,-4.441874E-2,-4.9005602E-3,-3.480132E-2,9.960768E-3,-1.5504166E-2,4.1933437E-3,5.459195E-2,2.825406E-2,-9.206357E-3],"split_indices":[5,0,2,2,7,1,6,4,8,5,4,7,3,0,0,8,7,0,0,0,0,6,0,0,0,5,6,0,7,0,0,0,0,0,0,0,0,0,0,0,0,0,0,0,0,0,0,0,0],"split_type":[0,0,0,0,0,0,0,0,0,0,0,0,0,0,0,0,0,0,0,0,0,0,0,0,0,0,0,0,0,0,0,0,0,0,0,0,0,0,0,0,0,0,0,0,0,0,0,0,0],"sum_hessian":[3.5969757E2,9.964927E1,2.600483E2,8.9657585E1,9.99168E0,1.9084917E2,6.919915E1,6.743172E1,2.2225866E1,5.495624E0,4.496056E0,2.7466083E0,1.8810255E2,3.4835818E0,6.571557E1,1.7478247E1,4.9953472E1,9.233877E0,1.299199E1,1.2493508E0,4.2462735E0,2.9976463E0,1.4984097E0,1.4969858E0,1.2496223E0,7.490654E1,1.13196014E2,1.1485101E1,5.423047E1,2.2485638E0,1.5229684E1,1.6235651E1,3.371782E1,7.7347064E0,1.4991704E0,6.244627E0,6.747363E0,2.9973552E0,1.2489182E0,1.249665E0,1.7479813E0,3.420336E1,4.070318E1,5.022591E1,6.2970104E1,5.249972E0,6.235129E0,9.745302E0,4.448517E1],"tree_param":{"num_deleted":"0","num_feature":"9","num_nodes":"49","size_leaf_vector":"1"}},{"base_weights":[2.504424E-3,2.3197508E-1,-1.0396334E-1,3.55663E-1,-1.2517405E-1,-2.1279977E-1,1.7338286E-1,-1.0436289E-1,5.528758E-1,5.1084816E-2,-2.0956443E-1,4.5454848E-1,-2.5102192E-1,7.024182E-2,8.838078E-2,3.183077E-1,-6.625336E-1,1.1824304E-1,8.9950883E-1,-5.771439E-1,1.1437824E-1,-3.8348954E-2,7.6061237E-1,-4.9957895E-1,-9.30963E-2,6.4680415E-1,-3.9280068E-2,4.667348E-2,-1.3979799E-2,-5.9386935E-2,4.51344E-3,2.1523165E-2,-1.4864673E-2,6.0829777E-2,2.9044256E-2,6.027807E-3,-4.2542186E-2,-5.5445224E-2,1.4520802E-2,5.6191713E-2,-1.3997047E-2,-1.6837103E-2,-6.2840596E-2,3.3404235E-2,-9.033435E-3,9.430617E-3,5.978706E-2,2.699337E-2,-8.757818E-3],"categories":[],"categories_nodes":[],"categories_segments":[],"categories_sizes":[],"default_left":[0,0,0,0,0,0,0,0,0,0,0,0,0,0,0,0,0,0,0,0,0,0,0,0,0,0,0,0,0,0,0,0,0,0,0,0,0,0,0,0,0,0,0,0,0,0,0,0,0],"id":3,"left_children":[1,3,5,7,9,11,13,15,17,-1,19,21,23,-1,25,27,29,31,33,35,37,-1,39,41,43,45,47,-1,-1,-1,-1,-1,-1,-1,-1,-1,-1,-1,-1,-1,-1,-1,-1,-1,-1,-1,-1,-1,-1],"loss_changes":[8.83096E0,5.104923E0,7.4903097E0,7.8006105E0,3.1376703E0,4.648859E0,7.21782E0,6.4511695E0,8.917473E0,0E0,3.5151563E0,4.316998E0,6.5792837E0,0E0,4.778819E0,6.045795E0,4.742117E0,3.7251322E0,2.6445045E0,2.725337E0,3.817428E0,0E0,3.5225677E0,7.634878E0,7.082785E0,2.909441E0,4.4394884E0,0E0,0E0,0E0,0E0,0E0,0E0,0E0,0E0,0E0,0E0,0E0,0E0,0E0,0E0,0E0,0E0,0E0,0E0,0E0,0E0,0E0,0E0],"parents":[2147483647,0,0,1,1,2,2,3,3,4,4,5,5,6,6,7,7,8,8,10,10,11,11,12,12,14,14,15,15,16,16,17,17,18,18,19,19,20,20,22,22,23,23,24,24,25,25,26,26],"right_children":[2,4,6,8,10,12,14,16,18,-1,20,22,24,-1,26,28,30,32,34,36,38,-1,40,42,44,46,48,-1,-1,-1,-1,-1,-1,-1,-1,-1,-1,-1,-1,-1,-1,-1,-1,-1,-1,-1,-1,-1,-1],"split_conditions":[3.206316E-1,-6.6417665E6,8.4018955E0,1.2714239E1,-8.895E-5,-2.3403864E7,-2.1616326E7,1.0730172E3,1.9936421E3,5.1084816E-2,-5.6303885E-2,4.333554E1,3.273687E4,7.024182E-2,5.91302E1,4.311478E1,-5.5229287E0,3.6775852E1,5.975163E4,-3.9853728E-1,2.43E-6,-3.8348954E-2,2.7980688E0,2.0054066E1,1.5133921E3,3.47467E-2,-3.6801907E-1,4.667348E-2,-1.3979799E-2,-5.9386935E-2,4.51344E-3,2.1523165E-2,-1.4864673E-2,6.0829777E-2,2.9044256E-2,6.027807E-3,-4.2542186E-2,-5.5445224E-2,1.4520802E-2,5.6191713E-2,-1.3997047E-2,-1.6837103E-2,-6.2840596E-2,3.3404235E-2,-9.033435E-3,9.430617E-3,5.978706E-2,2.699337E-2,-8.757818E-3],"split_indices":[5,6,2,4,8,6,6,1,1,0,7,0,3,0,0,0,2,0,3,7,8,0,2,4,1,7,7,0,0,0,0,0,0,0,0,0,0,0,0,0,0,0,0,0,0,0,0,0,0],"split_type":[0,0,0,0,0,0,0,0,0,0,0,0,0,0,0,0,0,0,0,0,0,0,0,0,0,0,0,0,0,0,0,0,0,0,0,0,0,0,0,0,0,0,0,0,0,0,0,0,0],"sum_hessian":[3.5947485E2,1.1355348E2,2.4592139E2,8.4346695E1,2.9206793E1,1.767814E2,6.913998E1,2.545057E1,5.8896122E1,1.2405711E0,2.796622E1,8.986546E0,1.6779486E2,3.4617262E0,6.567825E1,1.4727791E1,1.0722779E1,2.6726137E1,3.2169987E1,1.2734591E1,1.523163E1,1.4987919E0,7.487754E0,6.435073E1,1.0344413E2,1.1464187E1,5.4214066E1,6.982503E0,7.745288E0,5.975863E0,4.746916E0,1.523965E1,1.1486486E1,1.4711337E1,1.7458649E1,3.7457275E0,8.988863E0,1.2495179E0,1.3982113E1,5.490998E0,1.9967563E0,5.4150745E1,1.0199984E1,9.989165E0,9.345496E1,6.9809E0,4.483287E0,9.737318E0,4.4476746E1],"tree_param":{"num_deleted":"0","num_feature":"9","num_nodes":"49","size_leaf_vector":"1"}},{"base_weights":[2.812411E-3,2.4334942E-1,-8.986676E-2,3.2058486E-1,-4.1586447E-1,-1.8337928E-1,1.6715153E-1,1.6555323E-1,7.6397985E-1,-8.5503346E-1,1.787712E-1,-2.500769E-1,1.5463598E-1,6.7977615E-2,8.533404E-2,2.6036605E-1,-6.402361E-1,1.2799728E0,3.3360282E-1,1.1375322E-2,-1.1569759E0,-4.605336E-1,5.655014E-2,5.5999823E-2,-2.699863E-1,-1.8660064E-1,7.661508E-1,-8.7680817E-1,1.5247573E-1,1.5385951E-2,-4.3492116E-2,2.0423986E-2,-4.85746E-2,7.345464E-2,2.4833402E-2,-1.0229566E-2,3.970151E-2,-7.0192315E-2,-1.023764E-2,1.1501869E-2,-4.2943593E-2,-2.5525093E-2,-5.6892443E-3,1.9388339E-2,-2.7779514E-2,4.9556956E-2,-3.1229407E-2,-9.601999E-3,-5.405757E-2,1.2086112E-2,-3.4971964E-2],"categories":[],"categories_nodes":[],"categories_segments":[],"categories_sizes":[],"default_left":[0,0,0,0,0,0,0,0,0,0,0,0,0,0,0,0,0,0,0,0,0,0,0,0,0,0,0,0,0,0,0,0,0,0,0,0,0,0,0,0,0,0,0,0,0,0,0,0,0,0,0],"id":4,"left_children":[1,3,5,7,9,11,13,15,17,19,21,23,25,-1,27,29,31,33,35,-1,37,39,-1,-1,41,43,45,47,49,-1,-1,-1,-1,-1,-1,-1,-1,-1,-1,-1,-1,-1,-1,-1,-1,-1,-1,-1,-1,-1,-1],"loss_changes":[8.050157E0,5.246909E0,6.296314E0,6.0921783E0,3.0172095E0,4.358829E0,6.719948E0,5.3852224E0,4.7161694E0,2.3819137E0,3.8608928E0,4.6784067E0,6.861807E0,0E0,4.438475E0,3.5765085E0,2.9953961E0,7.7837753E-1,3.6267133E0,0E0,9.42606E-1,1.2960509E0,0E0,0E0,5.912922E0,4.7657557E0,4.2887278E0,4.2135215E-1,4.969834E0,0E0,0E0,0E0,0E0,0E0,0E0,0E0,0E0,0E0,0E0,0E0,0E0,0E0,0E0,0E0,0E0,0E0,0E0,0E0,0E0,0E0,0E0],"parents":[2147483647,0,0,1,1,2,2,3,3,4,4,5,5,6,6,7,7,8,8,9,9,10,10,11,11,12,12,14,14,15,15,16,16,17,17,18,18,20,20,21,21,24,24,25,25,26,26,27,27,28,28],"right_children":[2,4,6,8,10,12,14,16,18,20,22,24,26,-1,28,30,32,34,36,-1,38,40,-1,-1,42,44,46,48,50,-1,-1,-1,-1,-1,-1,-1,-1,-1,-1,-1,-1,-1,-1,-1,-1,-1,-1,-1,-1,-1,-1],"split_conditions":[2.8995433E-1,4.450178E1,8.4018955E0,-5.616887E0,1.5476E-1,6.0022455E-1,-2.1616326E7,-6.478337E0,5.648E-5,1.1120063E-1,1.3194239E1,3.8771927E2,1.5514681E1,6.7977615E-2,-2.0957446E7,-2.2683015E6,5.3E-7,2.5892428E-1,4.188255E1,1.1375322E-2,4.7046986E1,1.5451427E-1,5.655014E-2,5.5999823E-2,3.1874135E4,-2.08522E7,2.0151577E0,-2.1467592E7,8.2136665E1,1.5385951E-2,-4.3492116E-2,2.0423986E-2,-4.85746E-2,7.345464E-2,2.4833402E-2,-1.0229566E-2,3.970151E-2,-7.0192315E-2,-1.023764E-2,1.1501869E-2,-4.2943593E-2,-2.5525093E-2,-5.6892443E-3,1.9388339E-2,-2.7779514E-2,4.9556956E-2,-3.1229407E-2,-9.601999E-3,-5.405757E-2,1.2086112E-2,-3.4971964E-2],"split_indices":[5,0,2,2,7,7,6,2,8,5,4,1,4,0,6,6,8,5,0,0,0,5,0,0,3,6,7,6,0,0,0,0,0,0,0,0,0,0,0,0,0,0,0,0,0,0,0,0,0,0,0],"split_type":[0,0,0,0,0,0,0,0,0,0,0,0,0,0,0,0,0,0,0,0,0,0,0,0,0,0,0,0,0,0,0,0,0,0,0,0,0,0,0,0,0,0,0,0,0,0,0,0,0,0,0],"sum_hessian":[3.591297E2,9.943446E1,2.5969525E2,8.946604E1,9.968421E0,1.9062537E2,6.906987E1,6.730607E1,2.2159975E1,5.481868E0,4.4865527E0,1.5942715E2,3.119822E1,3.432213E0,6.563766E1,6.0825897E1,6.480171E0,9.179865E0,1.2980109E1,1.2493079E0,4.23256E0,2.9932933E0,1.4932594E0,1.4921123E0,1.5793503E2,2.0470278E1,1.0727941E1,3.4950097E0,6.214265E1,5.9078392E1,1.7475066E0,1.4995751E0,4.980596E0,6.689304E0,2.4905612E0,6.240837E0,6.7392726E0,2.98452E0,1.2480401E0,1.2495477E0,1.7437456E0,6.129149E1,9.664355E1,7.9869475E0,1.2483331E1,9.481404E0,1.2465358E0,1.2490728E0,2.2459366E0,5.6898254E1,5.244394E0],"tree_param":{"num_deleted":"0","num_feature":"9","num_nodes":"51","size_leaf_vector":"1"}},{"base_weights":[2.79897E-3,2.1163599E-1,-9.3997315E-2,4.167236E-1,1.1057133E-2,-1.9310944E-1,1.5864423E-1,2.013907E-1,8.5292107E-1,-1.2174088E-1,5.1502836E-1,4.447936E-1,-2.2973196E-1,6.58965E-2,7.977681E-2,4.532377E-1,-5.319173E-1,1.2356623E0,3.6348942E-1,4.6164878E-2,-1.8791533E-1,-2.3494055E-2,7.7733886E-1,-3.671379E-2,7.3907965E-1,-4.5992208E-1,-8.382375E-2,6.115792E-1,-4.1512087E-2,5.9775114E-3,5.1719487E-2,-5.3111847E-2,2.0515397E-2,6.815994E-2,9.791656E-3,-2.5558224E-2,4.2314794E-2,-1.2594225E-2,4.484226E-2,5.355079E-2,5.5271415E-3,5.4240692E-2,-1.2883103E-2,-1.2451935E-2,-4.9799733E-2,5.8770496E-2,-6.628337E-3,4.9635596E-3,5.3627152E-2,-4.7709502E-2,2.1734524E-3],"categories":[],"categories_nodes":[],"categories_segments":[],"categories_sizes":[],"default_left":[0,0,0,0,0,0,0,0,0,0,0,0,0,0,0,0,0,0,0,0,0,0,0,0,0,0,0,0,0,0,0,0,0,0,0,0,0,0,0,0,0,0,0,0,0,0,0,0,0,0,0],"id":5,"left_children":[1,3,5,7,9,11,13,15,17,19,21,23,25,-1,27,29,31,33,35,-1,37,-1,39,-1,41,43,45,47,49,-1,-1,-1,-1,-1,-1,-1,-1,-1,-1,-1,-1,-1,-1,-1,-1,-1,-1,-1,-1,-1,-1],"loss_changes":[7.2941933E0,4.6962595E0,6.204893E0,5.132839E0,3.9979777E0,4.250067E0,6.2973304E0,7.465683E0,2.9894438E0,3.4477186E0,3.582755E0,4.005762E0,5.6231747E0,0E0,4.3231354E0,5.6278386E0,5.662798E0,1.043829E0,4.4325743E0,0E0,3.3733163E0,0E0,1.8812313E0,0E0,3.2036438E0,7.1198597E0,6.5635386E0,2.830771E0,4.322209E0,0E0,0E0,0E0,0E0,0E0,0E0,0E0,0E0,0E0,0E0,0E0,0E0,0E0,0E0,0E0,0E0,0E0,0E0,0E0,0E0,0E0,0E0],"parents":[2147483647,0,0,1,1,2,2,3,3,4,4,5,5,6,6,7,7,8,8,9,9,10,10,11,11,12,12,14,14,15,15,16,16,17,17,18,18,20,20,22,22,24,24,25,25,26,26,27,27,28,28],"right_children":[2,4,6,8,10,12,14,16,18,20,22,24,26,-1,28,30,32,34,36,-1,38,-1,40,-1,42,44,46,48,50,-1,-1,-1,-1,-1,-1,-1,-1,-1,-1,-1,-1,-1,-1,-1,-1,-1,-1,-1,-1,-1,-1],"split_conditions":[3.206316E-1,8.003E-5,8.4018955E0,-5.616887E0,5.7140577E-1,-2.3403864E7,-2.1616326E7,4.0790512E1,2.5892428E-1,2.7901182E1,9.129872E0,4.333554E1,3.273687E4,6.58965E-2,5.91302E1,2.0375911E3,3.136E-5,5.648E-5,1.1235913E1,4.6164878E-2,6.047435E-1,-2.3494055E-2,-7.2910285E0,-3.671379E-2,2.7980688E0,1.603605E1,-1.9464118E7,5.6553207E1,6.0783875E1,5.9775114E-3,5.1719487E-2,-5.3111847E-2,2.0515397E-2,6.815994E-2,9.791656E-3,-2.5558224E-2,4.2314794E-2,-1.2594225E-2,4.484226E-2,5.355079E-2,5.5271415E-3,5.4240692E-2,-1.2883103E-2,-1.2451935E-2,-4.9799733E-2,5.8770496E-2,-6.628337E-3,4.9635596E-3,5.3627152E-2,-4.7709502E-2,2.1734524E-3],"split_indices":[5,8,2,2,7,6,6,0,5,0,4,0,3,0,0,1,8,8,4,0,2,0,2,0,2,4,6,0,0,0,0,0,0,0,0,0,0,0,0,0,0,0,0,0,0,0,0,0,0,0,0],"split_type":[0,0,0,0,0,0,0,0,0,0,0,0,0,0,0,0,0,0,0,0,0,0,0,0,0,0,0,0,0,0,0,0,0,0,0,0,0,0,0,0,0,0,0,0,0,0,0,0,0,0,0],"sum_hessian":[3.588529E2,1.1327557E2,2.4557733E2,5.5475475E1,5.7800102E1,1.765513E2,6.902603E1,3.811925E1,1.7356226E1,4.6346176E1,1.1453927E1,8.980508E0,1.675708E2,3.39606E0,6.5629974E1,2.8658657E1,9.460591E0,8.884081E0,8.472144E0,1.9886465E0,4.435753E1,2.2425194E0,9.211408E0,1.4951235E0,7.485384E0,6.4174545E1,1.0339625E2,1.1437754E1,5.419222E1,1.8971348E1,9.68731E0,5.9719715E0,3.48862E0,7.636474E0,1.247607E0,2.9923878E0,5.4797564E0,4.261244E1,1.7450914E0,5.9740467E0,3.2373607E0,5.4920335E0,1.9933507E0,4.710763E1,1.7066917E1,2.991778E0,1.0040447E2,5.992803E0,5.4449506E0,3.7448738E0,5.0447346E1],"tree_param":{"num_deleted":"0","num_feature":"9","num_nodes":"51","size_leaf_vector":"1"}},{"base_weights":[3.5268296E-3,2.2406234E-1,-8.133866E-2,2.9970026E-1,-3.8943675E-1,-1.6623107E-1,1.520342E-1,1.5072551E-1,7.37283E-1,-6.3946044E-1,2.193275E-2,-2.2933538E-1,1.5308583E-1,6.397575E-2,7.603451E-2,2.4032332E-1,-6.102237E-1,1.1780728E0,3.684351E-1,-9.496768E-1,1.6137121E-2,-1.3524857E-1,-5.403966E-1,-1.7095262E-1,7.333286E-1,-8.4946537E-1,1.4071062E-1,-2.8784804E-3,2.121946E-2,1.9702444E-2,-4.642872E-2,6.5576725E-2,7.1078273E-3,-9.593759E-3,4.307393E-2,9.259439E-3,-6.0862567E-2,2.4939824E-3,-1.9267319E-2,-3.2045636E-2,4.700278E-2,1.8765002E-2,-2.6133562E-2,4.7438722E-2,-2.9994199E-2,-9.122314E-3,-5.2495074E-2,1.1298195E-2,-3.3614326E-2],"categories":[],"categories_nodes":[],"categories_segments":[],"categories_sizes":[],"default_left":[0,0,0,0,0,0,0,0,0,0,0,0,0,0,0,0,0,0,0,0,0,0,0,0,0,0,0,0,0,0,0,0,0,0,0,0,0,0,0,0,0,0,0,0,0,0,0,0,0],"id":6,"left_children":[1,3,5,7,9,11,13,15,17,19,-1,21,23,-1,25,27,29,31,33,35,-1,37,39,41,43,45,47,-1,-1,-1,-1,-1,-1,-1,-1,-1,-1,-1,-1,-1,-1,-1,-1,-1,-1,-1,-1,-1,-1],"loss_changes":[6.7453933E0,4.763936E0,5.182019E0,5.737651E0,2.6463413E0,3.8906393E0,5.896649E0,4.7958174E0,3.2290487E0,3.047759E0,0E0,4.6144485E0,6.174568E0,0E0,4.105836E0,3.4089003E0,2.7528028E0,1.1697226E0,3.9558938E0,2.4112873E0,0E0,5.7745485E0,6.0877886E0,4.3182783E0,3.9349394E0,4.090109E-1,4.5257163E0,0E0,0E0,0E0,0E0,0E0,0E0,0E0,0E0,0E0,0E0,0E0,0E0,0E0,0E0,0E0,0E0,0E0,0E0,0E0,0E0,0E0,0E0],"parents":[2147483647,0,0,1,1,2,2,3,3,4,4,5,5,6,6,7,7,8,8,9,9,11,11,12,12,14,14,15,15,16,16,17,17,18,18,19,19,21,21,22,22,23,23,24,24,25,25,26,26],"right_children":[2,4,6,8,10,12,14,16,18,20,-1,22,24,-1,26,28,30,32,34,36,-1,38,40,42,44,46,48,-1,-1,-1,-1,-1,-1,-1,-1,-1,-1,-1,-1,-1,-1,-1,-1,-1,-1,-1,-1,-1,-1],"split_conditions":[2.8995433E-1,4.4407394E1,8.4018955E0,-5.616887E0,4.8165375E1,6.0022455E-1,-2.1616326E7,-6.478337E0,5.648E-5,6.334897E-1,2.193275E-2,7.48714E-1,1.5514681E1,6.397575E-2,-2.0957446E7,1.9628013E3,5.3E-7,4.311478E1,4.188255E1,6.987E-5,1.6137121E-2,1.7260605E1,3.831167E3,-2.08522E7,2.0151577E0,-2.1467592E7,8.2136665E1,-2.8784804E-3,2.121946E-2,1.9702444E-2,-4.642872E-2,6.5576725E-2,7.1078273E-3,-9.593759E-3,4.307393E-2,9.259439E-3,-6.0862567E-2,2.4939824E-3,-1.9267319E-2,-3.2045636E-2,4.700278E-2,1.8765002E-2,-2.6133562E-2,4.7438722E-2,-2.9994199E-2,-9.122314E-3,-5.2495074E-2,1.1298195E-2,-3.3614326E-2],"split_indices":[5,0,2,2,0,7,6,2,8,7,0,5,4,0,6,1,8,0,0,8,0,4,1,6,7,6,0,0,0,0,0,0,0,0,0,0,0,0,0,0,0,0,0,0,0,0,0,0,0],"split_type":[0,0,0,0,0,0,0,0,0,0,0,0,0,0,0,0,0,0,0,0,0,0,0,0,0,0,0,0,0,0,0,0,0,0,0,0,0,0,0,0,0,0,0,0,0,0,0,0,0],"sum_hessian":[3.5843692E2,9.9147446E1,2.5928946E2,8.872062E1,1.0426821E1,1.9033891E2,6.8950554E1,6.719021E1,2.153041E1,8.18372E0,2.2431006E0,1.591659E2,3.1173027E1,3.3541918E0,6.559636E1,6.0724407E1,6.4658036E0,8.809154E0,1.2721258E1,6.19837E0,1.9853499E0,1.2330467E2,3.586122E1,2.0455156E1,1.0717871E1,3.492034E0,6.210433E1,2.3453846E1,3.727056E1,1.4990627E0,4.9667406E0,7.5680637E0,1.2410895E0,6.240355E0,6.480903E0,1.2413449E0,4.957025E0,7.13157E1,5.1988976E1,3.4112236E1,1.7489873E0,7.9856424E0,1.2469514E1,9.475063E0,1.2428066E0,1.2482629E0,2.243771E0,5.686351E1,5.2408156E0],"tree_param":{"num_deleted":"0","num_feature":"9","num_nodes":"49","size_leaf_vector":"1"}},{"base_weights":[3.5612083E-3,2.1408628E-1,-7.737355E-2,2.6098216E-1,-7.3255086E-1,-1.2098765E-1,3.3513367E-1,9.574748E-2,4.8836482E-1,5.118029E-4,-5.2730322E-2,-1.5420628E-1,4.096493E-1,5.756405E-1,-4.8629802E-1,7.438618E-1,-3.2277808E-2,-5.084005E-1,6.766229E-1,-5.777046E-2,-3.791583E-1,6.2163264E-1,-4.185707E-2,8.4108865E-1,-6.059352E-1,1.9851136E-1,-5.4041345E-2,4.4955857E-2,-2.5967264E-3,-1.0681284E-2,1.9114524E-2,-4.4725366E-2,-2.2960245E-3,4.4519745E-2,-2.4543388E-3,-1.3436313E-2,6.6994466E-3,-3.8777906E-2,-1.0636873E-2,-1.1660646E-3,6.221169E-2,5.1101398E-2,6.0528645E-4,6.5821907E-3,-5.8527138E-2,3.560773E-2,-1.7176716E-2],"categories":[],"categories_nodes":[],"categories_segments":[],"categories_sizes":[],"default_left":[0,0,0,0,0,0,0,0,0,0,0,0,0,0,0,0,0,0,0,0,0,0,0,0,0,0,0,0,0,0,0,0,0,0,0,0,0,0,0,0,0,0,0,0,0,0,0],"id":7,"left_children":[1,3,5,7,9,11,13,15,17,-1,-1,19,21,23,25,27,29,31,33,35,37,39,-1,41,43,45,-1,-1,-1,-1,-1,-1,-1,-1,-1,-1,-1,-1,-1,-1,-1,-1,-1,-1,-1,-1,-1],"loss_changes":[6.1348166E0,4.6294937E0,4.720056E0,3.5599232E0,1.2025106E0,4.2225313E0,5.2457933E0,4.7402325E0,7.8792553E0,0E0,0E0,4.8111734E0,4.266823E0,6.7515798E0,2.7530012E0,1.2102137E0,3.7220695E0,1.2000257E0,5.3502617E0,6.391911E0,4.233225E0,5.1242657E0,0E0,2.4879227E0,1.9164811E0,1.2865626E0,0E0,0E0,0E0,0E0,0E0,0E0,0E0,0E0,0E0,0E0,0E0,0E0,0E0,0E0,0E0,0E0,0E0,0E0,0E0,0E0,0E0],"parents":[2147483647,0,0,1,1,2,2,3,3,4,4,5,5,6,6,7,7,8,8,11,11,12,12,13,13,14,14,15,15,16,16,17,17,18,18,19,19,20,20,21,21,23,23,24,24,25,25],"right_children":[2,4,6,8,10,12,14,16,18,-1,-1,20,22,24,26,28,30,32,34,36,38,40,-1,42,44,46,-1,-1,-1,-1,-1,-1,-1,-1,-1,-1,-1,-1,-1,-1,-1,-1,-1,-1,-1,-1,-1],"split_conditions":[2.8995433E-1,-3.1902755E6,1.8320438E1,2.3103364E3,-1.36029415E1,1.029281E0,8.2136665E1,-2.3443412E7,1.3194239E1,5.118029E-4,-5.2730322E-2,7.48714E-1,1.393823E1,3.0099503E1,2.8714006E4,4.1652435E1,-5.237832E0,3.7866174E3,-4.603446E6,9.74E-5,2.7418926E4,6.7725876E1,-4.185707E-2,-3.0607595E6,8.8696206E-1,3.288559E1,-5.4041345E-2,4.4955857E-2,-2.5967264E-3,-1.0681284E-2,1.9114524E-2,-4.4725366E-2,-2.2960245E-3,4.4519745E-2,-2.4543388E-3,-1.3436313E-2,6.6994466E-3,-3.8777906E-2,-1.0636873E-2,-1.1660646E-3,6.221169E-2,5.1101398E-2,6.0528645E-4,6.5821907E-3,-5.8527138E-2,3.560773E-2,-1.7176716E-2],"split_indices":[5,6,2,1,2,5,0,6,4,0,0,5,2,2,3,0,2,1,6,8,3,0,0,6,5,4,0,0,0,0,0,0,0,0,0,0,0,0,0,0,0,0,0,0,0,0,0],"split_type":[0,0,0,0,0,0,0,0,0,0,0,0,0,0,0,0,0,0,0,0,0,0,0,0,0,0,0,0,0,0,0,0,0,0,0,0,0,0,0,0,0,0,0,0,0,0,0],"sum_hessian":[3.5807773E2,9.8976875E1,2.5910086E2,9.499517E1,3.9817014E0,2.3496489E2,2.4135975E1,5.5839066E1,3.9156105E1,1.4970745E0,2.484627E0,2.2178993E2,1.3174971E1,1.8901138E1,5.2348366E0,8.417269E0,4.7421795E1,5.950356E0,3.320575E1,1.561192E2,6.567072E1,1.1688986E1,1.4859849E0,1.5669134E1,3.232003E0,2.7422607E0,2.492576E0,6.9345455E0,1.4827234E0,3.33277E1,1.4094094E1,2.733832E0,3.2165244E0,2.547474E1,7.731011E0,7.414758E1,8.197163E1,1.8335928E1,4.733479E1,6.2142115E0,5.474775E0,1.2670679E1,2.9984555E0,1.7338352E0,1.4981679E0,1.2468841E0,1.4953767E0],"tree_param":{"num_deleted":"0","num_feature":"9","num_nodes":"47","size_leaf_vector":"1"}},{"base_weights":[3.1688518E-3,1.8653016E-1,-8.163287E-2,-1.0826531E-1,3.1466344E-1,-5.596123E-1,-3.4194443E-2,5.354619E-1,-2.8491428E-1,1.0881454E0,2.3442411E-1,6.861004E-1,-7.515359E-1,-6.727924E-2,5.1384664E-1,-3.2631573E-1,6.914925E-2,4.374419E-1,-4.5683601E-1,6.737716E-2,1.3551788E-2,-1.3923687E-1,4.930902E-1,-6.2044687E-3,5.942188E-2,-7.330613E-2,-4.783306E-1,2.8491847E-2,-2.878938E-1,9.0976954E-1,-8.1533647E-1,-4.325609E-2,3.293102E-2,6.74225E-2,-3.703486E-2,-5.0086856E-2,-1.2242201E-2,7.334416E-3,-2.8007139E-2,3.4497008E-2,-1.8600348E-2,-2.140343E-3,-4.911434E-2,-1.4055953E-3,2.7013794E-2,-5.8939788E-3,-3.885389E-2,5.8673184E-2,-1.9860432E-2,-9.254333E-3,-5.4077756E-2],"categories":[],"categories_nodes":[],"categories_segments":[],"categories_sizes":[],"default_left":[0,0,0,0,0,0,0,0,0,0,0,0,0,0,0,0,0,0,0,0,0,0,0,0,0,0,0,0,0,0,0,0,0,0,0,0,0,0,0,0,0,0,0,0,0,0,0,0,0,0,0],"id":8,"left_children":[1,3,5,7,9,11,13,15,17,19,21,23,25,27,29,31,-1,33,35,-1,-1,37,39,-1,-1,-1,41,43,45,47,49,-1,-1,-1,-1,-1,-1,-1,-1,-1,-1,-1,-1,-1,-1,-1,-1,-1,-1,-1,-1],"loss_changes":[5.5945272E0,4.331602E0,5.55972E0,4.156789E0,4.682643E0,5.811084E0,4.1122537E0,6.242918E0,3.7123413E0,1.1614866E0,7.1587768E0,1.5636525E0,3.1387615E0,4.50797E0,7.54061E0,3.0857084E0,0E0,7.3830266E0,2.4503026E0,0E0,0E0,3.7873802E0,7.676138E0,0E0,0E0,0E0,3.4068286E0,4.343553E0,5.2775173E0,4.059655E0,3.857944E-1,0E0,0E0,0E0,0E0,0E0,0E0,0E0,0E0,0E0,0E0,0E0,0E0,0E0,0E0,0E0,0E0,0E0,0E0,0E0,0E0],"parents":[2147483647,0,0,1,1,2,2,3,3,4,4,5,5,6,6,7,7,8,8,9,9,10,10,11,11,12,12,13,13,14,14,15,15,17,17,18,18,21,21,22,22,26,26,27,27,28,28,29,29,30,30],"right_children":[2,4,6,8,10,12,14,16,18,20,22,24,26,28,30,32,-1,34,36,-1,-1,38,40,-1,-1,-1,42,44,46,48,50,-1,-1,-1,-1,-1,-1,-1,-1,-1,-1,-1,-1,-1,-1,-1,-1,-1,-1,-1,-1],"split_conditions":[3.206316E-1,-1.9028433E-1,3.6032122E-1,5.3E-7,2.055106E4,-8.680497E0,4.3463654E1,-1.0913494E1,8.9179504E2,6.8007284E-1,2.0375911E3,3.0255112E1,4.1652435E1,-1.2398687E7,8.7416637E-1,1.7509214E3,6.914925E-2,4.3782986E1,-1.4799555E7,6.737716E-2,1.3551788E-2,3.979416E-1,-4.603446E6,-6.2044687E-3,5.942188E-2,-7.330613E-2,4.5982193E1,1.029281E0,5.8862773E4,7.8629395E1,-1.3206875E7,-4.325609E-2,3.293102E-2,6.74225E-2,-3.703486E-2,-5.0086856E-2,-1.2242201E-2,7.334416E-3,-2.8007139E-2,3.4497008E-2,-1.8600348E-2,-2.140343E-3,-4.911434E-2,-1.4055953E-3,2.7013794E-2,-5.8939788E-3,-3.885389E-2,5.8673184E-2,-1.9860432E-2,-9.254333E-3,-5.4077756E-2],"split_indices":[5,7,5,8,3,2,4,2,1,7,1,4,0,6,5,1,0,0,6,0,0,7,6,0,0,0,0,5,3,0,6,0,0,0,0,0,0,0,0,0,0,0,0,0,0,0,0,0,0,0,0],"split_type":[0,0,0,0,0,0,0,0,0,0,0,0,0,0,0,0,0,0,0,0,0,0,0,0,0,0,0,0,0,0,0,0,0,0,0,0,0,0,0,0,0,0,0,0,0,0,0,0,0,0,0],"sum_hessian":[3.5781235E2,1.1277235E2,2.4504E2,3.4213226E1,7.855911E1,2.1149145E1,2.2389084E2,6.929648E0,2.7283579E1,6.202988E0,7.2356125E1,2.4796565E0,1.8669489E1,2.1197153E2,1.1919314E1,3.740854E0,3.1887941E0,4.9482613E0,2.2335318E1,4.2155666E0,1.9874215E0,2.97876E1,4.2568527E1,1.2372099E0,1.2424465E0,3.9559803E0,1.4713508E1,1.4841422E2,6.3557316E1,9.426879E0,2.4924362E0,2.496693E0,1.244161E0,2.7089663E0,2.239295E0,5.212313E0,1.7123005E1,1.8125963E1,1.1661636E1,3.4842667E1,7.725861E0,8.47461E0,6.238898E0,1.344851E2,1.39291E1,4.808612E1,1.5471195E1,7.9292407E0,1.4976379E0,1.2435889E0,1.2488471E0],"tree_param":{"num_deleted":"0","num_feature":"9","num_nodes":"51","size_leaf_vector":"1"}},{"base_weights":[2.984696E-3,4.5015574E-1,-3.0115064E-2,-3.7235212E-1,7.458978E-1,-1.3470871E-2,-8.1417E-1,-6.144928E-2,1.25464E-1,1.2720254E-1,1.062746E0,6.537E-2,-1.7109345E-1,7.1204314E-3,-1.1546932E0,5.3625442E-2,-4.9424922E-1,5.9750255E-2,-4.7771013E-1,1.3612895E0,-8.977721E-3,-7.3953874E-2,2.2062056E-1,4.5898414E-1,-2.3476364E-1,-7.054441E-2,-9.34442E-3,-5.4207135E-2,8.465437E-3,-4.5900725E-2,2.83261E-2,7.5470395E-2,1.5649566E-2,1.9181164E-2,-8.7297475E-3,-7.0689293E-3,1.9469382E-2,-5.138067E-2,4.957042E-2,-4.1565802E-2,-5.7640946E-3],"categories":[],"categories_nodes":[],"categories_segments":[],"categories_sizes":[],"default_left":[0,0,0,0,0,0,0,0,0,0,0,0,0,0,0,0,0,0,0,0,0,0,0,0,0,0,0,0,0,0,0,0,0,0,0,0,0,0,0,0,0],"id":9,"left_children":[1,3,5,7,9,11,13,-1,15,17,19,21,23,-1,25,-1,27,-1,29,31,-1,33,35,37,39,-1,-1,-1,-1,-1,-1,-1,-1,-1,-1,-1,-1,-1,-1,-1,-1],"loss_changes":[5.320209E0,6.3035364E0,4.3575754E0,3.232471E0,3.5019197E0,4.097382E0,2.4256277E0,0E0,3.7420158E0,5.363426E0,4.7446613E0,4.7728863E0,4.516963E0,0E0,1.0328717E0,0E0,1.7463722E0,0E0,3.0262713E0,1.0646782E0,0E0,5.4386625E0,6.4245915E0,9.27055E0,7.0662947E0,0E0,0E0,0E0,0E0,0E0,0E0,0E0,0E0,0E0,0E0,0E0,0E0,0E0,0E0,0E0,0E0],"parents":[2147483647,0,0,1,1,2,2,3,3,4,4,5,5,6,6,8,8,9,9,10,10,11,11,12,12,14,14,16,16,18,18,19,19,21,21,22,22,23,23,24,24],"right_children":[2,4,6,8,10,12,14,-1,16,18,20,22,24,-1,26,-1,28,-1,30,32,-1,34,36,38,40,-1,-1,-1,-1,-1,-1,-1,-1,-1,-1,-1,-1,-1,-1,-1,-1],"split_conditions":[-1.36029415E1,-2.7035466E-1,9.9708734E4,1.1586417E3,2.8635627E-2,-1.2398687E7,4.288207E1,-6.144928E-2,4.721578E4,-1.3072156E7,2.7065974E-1,3.1874135E4,-4.1702753E-1,7.1204314E-3,1.4615724E1,5.3625442E-2,-1.542889E1,5.9750255E-2,6.638566E-1,6.762555E1,-8.977721E-3,-2.3332856E7,-2.0591807E-1,-6.6984925E0,-9.068158E6,-7.054441E-2,-9.34442E-3,-5.4207135E-2,8.465437E-3,-4.5900725E-2,2.83261E-2,7.5470395E-2,1.5649566E-2,1.9181164E-2,-8.7297475E-3,-7.0689293E-3,1.9469382E-2,-5.138067E-2,4.957042E-2,-4.1565802E-2,-5.7640946E-3],"split_indices":[2,7,3,1,5,6,0,0,3,6,5,3,7,0,4,0,2,0,7,4,0,6,7,2,6,0,0,0,0,0,0,0,0,0,0,0,0,0,0,0,0],"split_type":[0,0,0,0,0,0,0,0,0,0,0,0,0,0,0,0,0,0,0,0,0,0,0,0,0,0,0,0,0,0,0,0,0,0,0,0,0,0,0,0,0],"sum_hessian":[3.5752722E2,2.3772024E1,3.337552E2,6.2184467E0,1.7553577E1,3.2781345E2,5.9417577E0,1.7457083E0,4.4727383E0,6.4196587E0,1.1133919E1,2.1890509E2,1.0890835E2,1.7126036E0,4.229154E0,1.480139E0,2.9925995E0,1.9687995E0,4.4508595E0,8.899463E0,2.2344556E0,1.1564626E2,1.0325882E2,9.425472E0,9.948288E1,2.9819555E0,1.2471985E0,1.248695E0,1.7439046E0,3.2157836E0,1.2350757E0,7.4122853E0,1.4871776E0,2.0342909E1,9.530335E1,3.2884678E1,7.037414E1,2.2402732E0,7.1851993E0,1.56061735E1,8.38767E1],"tree_param":{"num_deleted":"0","num_feature":"9","num_nodes":"41","size_leaf_vector":"1"}},{"base_weights":[2.7630634E-3,4.3218252E-1,-2.8921766E-2,-3.6206344E-1,7.182201E-1,-1.2884256E-2,-7.860294E-1,-5.9617247E-2,1.2094972E-1,1.2681414E-1,1.0215838E0,-4.1672416E-2,3.9835897E-1,6.8966644E-3,-1.1160396E0,5.2241176E-2,-4.8134252E-1,5.8067467E-2,-4.567477E-1,1.3105965E0,-8.666761E-3,3.6550286E-1,-7.17158E-2,6.645669E-1,-2.9607224E-1,-6.819979E-2,-9.086764E-3,-5.2764267E-2,8.196963E-3,-4.8656814E-2,2.0878455E-2,7.266133E-2,1.5192943E-2,7.7236956E-4,4.143779E-2,-6.669524E-2,-2.8025813E-3,4.2031806E-2,-1.8940188E-2,2.5420606E-2,-4.822516E-2],"categories":[],"categories_nodes":[],"categories_segments":[],"categories_sizes":[],"default_left":[0,0,0,0,0,0,0,0,0,0,0,0,0,0,0,0,0,0,0,0,0,0,0,0,0,0,0,0,0,0,0,0,0,0,0,0,0,0,0,0,0],"id":10,"left_children":[1,3,5,7,9,11,13,-1,15,17,19,21,23,-1,25,-1,27,-1,29,31,-1,33,35,37,39,-1,-1,-1,-1,-1,-1,-1,-1,-1,-1,-1,-1,-1,-1,-1,-1],"loss_changes":[4.8873415E0,5.867457E0,4.0526466E0,3.0317638E0,3.1863317E0,3.907795E0,2.2651997E0,0E0,3.5410738E0,5.002705E0,4.3969345E0,3.7949307E0,4.18939E0,0E0,9.595213E-1,0E0,1.6506562E0,0E0,2.8687568E0,9.712696E-1,0E0,3.4467566E0,5.6143074E0,3.2431922E0,4.0808015E0,0E0,0E0,0E0,0E0,0E0,0E0,0E0,0E0,0E0,0E0,0E0,0E0,0E0,0E0,0E0,0E0],"parents":[2147483647,0,0,1,1,2,2,3,3,4,4,5,5,6,6,8,8,9,9,10,10,11,11,12,12,14,14,16,16,18,18,19,19,21,21,22,22,23,23,24,24],"right_children":[2,4,6,8,10,12,14,-1,16,18,20,22,24,-1,26,-1,28,-1,30,32,-1,34,36,38,40,-1,-1,-1,-1,-1,-1,-1,-1,-1,-1,-1,-1,-1,-1,-1,-1],"split_conditions":[-1.36029415E1,-2.7035466E-1,9.9708734E4,1.1586417E3,2.8635627E-2,3.7866174E3,4.288207E1,-5.9617247E-2,4.721578E4,-1.3072156E7,2.7065974E-1,-2.3332856E7,2.1003555E1,6.8966644E-3,1.4615724E1,5.2241176E-2,-1.542889E1,5.8067467E-2,4.3836084E-1,6.762555E1,-8.666761E-3,8.2497296E2,-2.3283216E7,7.766835E0,2.5892428E-1,-6.819979E-2,-9.086764E-3,-5.2764267E-2,8.196963E-3,-4.8656814E-2,2.0878455E-2,7.266133E-2,1.5192943E-2,7.7236956E-4,4.143779E-2,-6.669524E-2,-2.8025813E-3,4.2031806E-2,-1.8940188E-2,2.5420606E-2,-4.822516E-2],"split_indices":[2,7,3,1,5,1,0,0,3,6,5,6,4,0,4,0,2,0,7,4,0,1,6,2,5,0,0,0,0,0,0,0,0,0,0,0,0,0,0,0,0],"split_type":[0,0,0,0,0,0,0,0,0,0,0,0,0,0,0,0,0,0,0,0,0,0,0,0,0,0,0,0,0,0,0,0,0,0,0,0,0,0,0,0,0],"sum_hessian":[3.57284E2,2.3682243E1,3.3360175E2,6.2002106E0,1.7482033E1,3.276777E2,5.9240484E0,1.740243E0,4.4599676E0,6.407898E0,1.1074135E1,3.0707993E2,2.0597773E1,1.7122167E0,4.2118316E0,1.4701366E0,2.9898312E0,1.9539108E0,4.453987E0,8.839368E0,2.234767E0,2.0333673E1,2.8674625E2,1.4920901E1,5.676872E0,2.9650326E0,1.2467989E0,1.2461034E0,1.7437278E0,2.7291017E0,1.7248853E0,7.3539863E0,1.4853816E0,1.2170456E1,8.163218E0,2.4833863E0,2.8426285E2,1.2932795E1,1.9881068E0,2.68489E0,2.9919817E0],"tree_param":{"num_deleted":"0","num_feature":"9","num_nodes":"41","size_leaf_vector":"1"}},{"base_weights":[2.5223661E-3,1.6783248E-1,-7.368451E-2,3.5697982E-1,-1.561348E-2,-5.2378136E-1,-2.9145554E-2,1.5732034E-1,7.657777E-1,-1.927248E-1,3.0989406E-1,6.780371E-1,-7.105518E-1,7.773872E-1,-5.0027303E-2,3.9022973E-1,-5.161979E-1,1.1217719E0,3.1982714E-1,5.052209E-2,-6.377571E-1,9.562721E-1,-1.0722047E-1,5.8677554E-2,-6.1288197E-3,-7.026046E-2,-4.4770083E-1,1.4366956E-1,6.5466456E-2,-8.3543755E-2,4.9483624E-1,5.070512E-3,4.5076396E-2,-5.078085E-2,1.863598E-2,6.199611E-2,8.92634E-3,-2.6477484E-2,3.9723236E-2,-2.2853425E-2,1.9120183E-2,3.4064382E-2,-4.1226886E-2,2.0009829E-3,6.418181E-2,-3.1525865E-2,1.9074956E-2,-1.683783E-3,-4.644816E-2,2.0594498E-2,-1.0880612E-2,7.882521E-3,-7.918521E-3,4.383499E-2,-3.9313097E-2],"categories":[],"categories_nodes":[],"categories_segments":[],"categories_sizes":[],"default_left":[0,0,0,0,0,0,0,0,0,0,0,0,0,0,0,0,0,0,0,0,0,0,0,0,0,0,0,0,0,0,0,0,0,0,0,0,0,0,0,0,0,0,0,0,0,0,0,0,0,0,0,0,0,0,0],"id":11,"left_children":[1,3,5,7,9,11,13,15,17,19,21,23,25,27,29,31,33,35,37,39,41,43,45,-1,-1,-1,47,49,-1,51,53,-1,-1,-1,-1,-1,-1,-1,-1,-1,-1,-1,-1,-1,-1,-1,-1,-1,-1,-1,-1,-1,-1,-1,-1],"loss_changes":[4.5231557E0,3.93641E0,4.911777E0,4.43543E0,3.4304605E0,5.4360995E0,3.8233266E0,6.2817535E0,2.507985E0,4.1979704E0,5.7606926E0,1.5245945E0,2.9480915E0,1.7439547E0,4.058469E0,4.2457867E0,4.991172E0,8.5327816E-1,4.2162695E0,4.52246E0,3.9304767E0,2.447754E0,3.732574E0,0E0,0E0,0E0,3.0931835E0,4.5192885E-1,0E0,3.780374E0,6.995969E0,0E0,0E0,0E0,0E0,0E0,0E0,0E0,0E0,0E0,0E0,0E0,0E0,0E0,0E0,0E0,0E0,0E0,0E0,0E0,0E0,0E0,0E0,0E0,0E0],"parents":[2147483647,0,0,1,1,2,2,3,3,4,4,5,5,6,6,7,7,8,8,9,9,10,10,11,11,12,12,13,13,14,14,15,15,16,16,17,17,18,18,19,19,20,20,21,21,22,22,26,26,27,27,29,29,30,30],"right_children":[2,4,6,8,10,12,14,16,18,20,22,24,26,28,30,32,34,36,38,40,42,44,46,-1,-1,-1,48,50,-1,52,54,-1,-1,-1,-1,-1,-1,-1,-1,-1,-1,-1,-1,-1,-1,-1,-1,-1,-1,-1,-1,-1,-1,-1,-1],"split_conditions":[3.206316E-1,8.003E-5,3.6032122E-1,-5.616887E0,2.1191982E1,-8.680497E0,5.318045E2,4.0790512E1,2.5892428E-1,-1.2650726E7,-6.6417665E6,3.348488E-1,4.1652435E1,-2.271225E7,4.3463654E1,2.0375911E3,3.136E-5,5.648E-5,1.1235913E1,-3.68775E-2,-3.9144003E-1,2.2927346E3,-5.6303885E-2,5.8677554E-2,-6.1288197E-3,-7.026046E-2,4.5982193E1,4.9339725E1,6.5466456E-2,5.222419E-1,8.7416637E-1,5.070512E-3,4.5076396E-2,-5.078085E-2,1.863598E-2,6.199611E-2,8.92634E-3,-2.6477484E-2,3.9723236E-2,-2.2853425E-2,1.9120183E-2,3.4064382E-2,-4.1226886E-2,2.0009829E-3,6.418181E-2,-3.1525865E-2,1.9074956E-2,-1.683783E-3,-4.644816E-2,2.0594498E-2,-1.0880612E-2,7.882521E-3,-7.918521E-3,4.383499E-2,-3.9313097E-2],"split_indices":[5,8,5,2,4,2,1,0,5,6,6,5,0,6,4,1,8,8,4,7,7,1,7,0,0,0,0,0,0,5,5,0,0,0,0,0,0,0,0,0,0,0,0,0,0,0,0,0,0,0,0,0,0,0,0],"split_type":[0,0,0,0,0,0,0,0,0,0,0,0,0,0,0,0,0,0,0,0,0,0,0,0,0,0,0,0,0,0,0,0,0,0,0,0,0,0,0,0,0,0,0,0,0,0,0,0,0,0,0,0,0,0,0],"sum_hessian":[3.570626E2,1.12286095E2,2.447765E2,5.4818207E1,5.7467884E1,2.1071762E1,2.2370474E2,3.776055E1,1.7057655E1,3.7481705E1,1.998618E1,2.480443E0,1.8591318E1,4.731415E0,2.1897333E2,2.8370394E1,9.390158E0,8.642802E0,8.414853E0,2.4808363E1,1.2673343E1,7.33185E0,1.2654329E1,1.244429E0,1.2360141E0,3.9105542E0,1.4680764E1,2.738749E0,1.9926656E0,2.0708168E2,1.1891643E1,1.889527E1,9.475124E0,5.9210253E0,3.4691324E0,7.401204E0,1.241598E0,2.9751136E0,5.439739E0,9.65875E0,1.5149613E1,1.2435889E0,1.1429754E1,2.2254193E0,5.1064305E0,5.970872E0,6.6834574E0,8.46682E0,6.2139454E0,1.4914197E0,1.2473294E0,4.877022E1,1.5831146E2,9.4041605E0,2.4874818E0],"tree_param":{"num_deleted":"0","num_feature":"9","num_nodes":"55","size_leaf_vector":"1"}},{"base_weights":[2.854074E-3,4.029029E-1,-2.6458615E-2,-3.5565463E-1,6.770143E-1,-1.1157657E-2,-7.528867E-1,-5.7852216E-2,1.1346972E-1,1.1205475E-1,9.6835595E-1,6.1915584E-2,-1.5734148E-1,6.3718036E-3,-1.0668612E0,4.9629558E-2,-4.5507815E-1,5.578367E-2,-4.4800073E-1,1.2519665E0,-9.226578E-3,-7.109582E-2,2.1003391E-1,4.3074587E-1,-2.1671301E-1,-6.532797E-2,-8.618414E-3,-5.0604314E-2,8.304615E-3,-4.3004237E-2,2.668829E-2,6.9485806E-2,1.4466728E-2,7.572271E-3,-1.2597019E-2,-6.4589763E-3,1.8413408E-2,-5.0030317E-2,4.725298E-2,-3.9459046E-2,-5.1271366E-3],"categories":[],"categories_nodes":[],"categories_segments":[],"categories_sizes":[],"default_left":[0,0,0,0,0,0,0,0,0,0,0,0,0,0,0,0,0,0,0,0,0,0,0,0,0,0,0,0,0,0,0,0,0,0,0,0,0,0,0,0,0],"id":12,"left_children":[1,3,5,7,9,11,13,-1,15,17,19,21,23,-1,25,-1,27,-1,29,31,-1,33,35,37,39,-1,-1,-1,-1,-1,-1,-1,-1,-1,-1,-1,-1,-1,-1,-1,-1],"loss_changes":[4.204189E0,5.3300347E0,3.7055273E0,2.8202698E0,2.9074554E0,3.5162287E0,2.03696E0,0E0,3.1618357E0,4.6396036E0,4.141055E0,4.3408637E0,3.9229982E0,0E0,8.846402E-1,0E0,1.5445998E0,0E0,2.6602101E0,8.8757515E-1,0E0,4.724083E0,5.637337E0,8.596261E0,6.473934E0,0E0,0E0,0E0,0E0,0E0,0E0,0E0,0E0,0E0,0E0,0E0,0E0,0E0,0E0,0E0,0E0],"parents":[2147483647,0,0,1,1,2,2,3,3,4,4,5,5,6,6,8,8,9,9,10,10,11,11,12,12,14,14,16,16,18,18,19,19,21,21,22,22,23,23,24,24],"right_children":[2,4,6,8,10,12,14,-1,16,18,20,22,24,-1,26,-1,28,-1,30,32,-1,34,36,38,40,-1,-1,-1,-1,-1,-1,-1,-1,-1,-1,-1,-1,-1,-1,-1,-1],"split_conditions":[-1.36029415E1,-2.7035466E-1,9.9708734E4,1.1586417E3,2.8635627E-2,-1.2398687E7,4.288207E1,-5.7852216E-2,4.721578E4,-1.3072156E7,2.7065974E-1,3.1874135E4,-4.1702753E-1,6.3718036E-3,1.4615724E1,4.9629558E-2,-1.542889E1,5.578367E-2,6.638566E-1,6.762555E1,-9.226578E-3,-2.1895258E7,-2.0591807E-1,-6.6984925E0,-9.068158E6,-6.532797E-2,-8.618414E-3,-5.0604314E-2,8.304615E-3,-4.3004237E-2,2.668829E-2,6.9485806E-2,1.4466728E-2,7.572271E-3,-1.2597019E-2,-6.4589763E-3,1.8413408E-2,-5.0030317E-2,4.725298E-2,-3.9459046E-2,-5.1271366E-3],"split_indices":[2,7,3,1,5,6,0,0,3,6,5,3,7,0,4,0,2,0,7,4,0,6,7,2,6,0,0,0,0,0,0,0,0,0,0,0,0,0,0,0,0],"split_type":[0,0,0,0,0,0,0,0,0,0,0,0,0,0,0,0,0,0,0,0,0,0,0,0,0,0,0,0,0,0,0,0,0,0,0,0,0,0,0,0,0],"sum_hessian":[3.5661105E2,2.3475878E1,3.331352E2,6.152468E0,1.732341E1,3.2725742E2,5.877755E0,1.730286E0,4.422182E0,6.365082E0,1.0958328E1,2.1857454E2,1.086829E2,1.7014219E0,4.1763334E0,1.4438236E0,2.9783585E0,1.9244295E0,4.440652E0,8.725832E0,2.2324965E0,1.1543395E2,1.0314058E2,9.392559E0,9.929034E1,2.9304001E0,1.2459332E0,1.2384816E0,1.739877E0,3.2150974E0,1.2255545E0,7.2453775E0,1.4804546E0,5.1823837E1,6.3610115E1,3.2866623E1,7.027396E1,2.232875E0,7.159684E0,1.5526366E1,8.376397E1],"tree_param":{"num_deleted":"0","num_feature":"9","num_nodes":"41","size_leaf_vector":"1"}},{"base_weights":[2.5955804E-3,1.726157E-1,-6.220429E-2,2.1604241E-1,-6.981858E-1,-1.2812081E-1,1.871331E-1,1.0016996E-1,5.1766604E-1,-3.921894E-4,-4.952429E-2,-1.085425E-1,-6.599867E-2,-1.9337809E-1,4.9946877E-1,-3.6061445E-1,3.026314E-1,1.0024589E0,1.4182785E-1,-1.634733E-1,4.6333927E-1,6.040058E-2,-9.471783E-1,6.6395396E-1,-9.2409045E-2,3.3623647E-2,-2.5649691E-2,-1.0574847E-2,2.6609674E-2,5.570755E-2,1.5904546E-3,1.8252596E-2,-3.825504E-2,5.425896E-2,-8.966713E-3,3.4460165E-2,-1.8784167E-2,-1.250581E-2,2.7875805E-2,-5.7803444E-3,-5.608908E-2,3.954573E-2,-3.7376042E-2,-5.3591665E-2,1.3821925E-2],"categories":[],"categories_nodes":[],"categories_segments":[],"categories_sizes":[],"default_left":[0,0,0,0,0,0,0,0,0,0,0,0,0,0,0,0,0,0,0,0,0,0,0,0,0,0,0,0,0,0,0,0,0,0,0,0,0,0,0,0,0,0,0,0,0],"id":13,"left_children":[1,3,5,7,9,11,13,15,17,-1,-1,19,-1,21,23,25,27,29,31,33,35,37,39,41,43,-1,-1,-1,-1,-1,-1,-1,-1,-1,-1,-1,-1,-1,-1,-1,-1,-1,-1,-1,-1],"loss_changes":[3.9467223E0,3.8890107E0,4.2873974E0,3.2655754E0,9.874141E-1,4.6579943E0,6.591022E0,6.622292E0,4.6141067E0,0E0,0E0,6.469198E0,0E0,4.9075804E0,3.0102663E0,3.7717273E0,5.9013457E0,1.1825838E0,3.4920104E0,3.8867574E0,3.6883116E0,3.212634E0,8.0625725E-1,4.86075E0,2.9930894E0,0E0,0E0,0E0,0E0,0E0,0E0,0E0,0E0,0E0,0E0,0E0,0E0,0E0,0E0,0E0,0E0,0E0,0E0,0E0,0E0],"parents":[2147483647,0,0,1,1,2,2,3,3,4,4,5,5,6,6,7,7,8,8,11,11,13,13,14,14,15,15,16,16,17,17,18,18,19,19,20,20,21,21,22,22,23,23,24,24],"right_children":[2,4,6,8,10,12,14,16,18,-1,-1,20,-1,22,24,26,28,30,32,34,36,38,40,42,44,-1,-1,-1,-1,-1,-1,-1,-1,-1,-1,-1,-1,-1,-1,-1,-1,-1,-1,-1,-1],"split_conditions":[2.8995433E-1,-3.1902755E6,4.814072E-1,-5.5229287E0,-1.36029415E1,3.1711256E1,1.4365589E1,1.603605E1,5.648E-5,-3.921894E-4,-4.952429E-2,1.8320438E1,-6.599867E-2,-1.36623E7,8.7416637E-1,5.3E-7,1.8561034E3,7.412855E-1,4.4832123E1,3.8771927E2,8.2136665E1,3.3170938E0,-4.8055366E-1,2.0151577E0,6.8007284E-1,3.3623647E-2,-2.5649691E-2,-1.0574847E-2,2.6609674E-2,5.570755E-2,1.5904546E-3,1.8252596E-2,-3.825504E-2,5.425896E-2,-8.966713E-3,3.4460165E-2,-1.8784167E-2,-1.250581E-2,2.7875805E-2,-5.7803444E-3,-5.608908E-2,3.954573E-2,-3.7376042E-2,-5.3591665E-2,1.3821925E-2],"split_indices":[5,6,7,2,2,2,4,4,8,0,0,2,0,6,5,8,1,7,0,1,0,2,2,7,7,0,0,0,0,0,0,0,0,0,0,0,0,0,0,0,0,0,0,0,0],"split_type":[0,0,0,0,0,0,0,0,0,0,0,0,0,0,0,0,0,0,0,0,0,0,0,0,0,0,0,0,0,0,0,0,0,0,0,0,0,0,0,0,0,0,0,0,0],"sum_hessian":[3.562555E2,9.785152E1,2.58404E2,9.391967E1,3.9318519E0,2.0475873E2,5.3645245E1,6.881546E1,2.5104212E1,1.4750274E0,2.4568243E0,2.02523E2,2.2357311E0,2.4354994E1,2.929025E1,2.0768051E1,4.8047405E1,1.0234932E1,1.4869279E1,1.8542644E2,1.7096565E1,1.8908892E1,5.4461026E0,2.2825249E1,6.4650016E0,2.2307913E0,1.853726E1,1.4855546E1,3.319186E1,9.046155E0,1.1887766E0,1.2411819E1,2.4574594E0,1.4801948E0,1.8394624E2,1.3611049E1,3.4855156E0,1.1944672E1,6.964219E0,1.2335014E0,4.212601E0,2.1344948E1,1.4803009E0,1.247237E0,5.217765E0],"tree_param":{"num_deleted":"0","num_feature":"9","num_nodes":"45","size_leaf_vector":"1"}},{"base_weights":[2.2591462E-3,1.6291354E-2,-7.195689E-1,1.650168E-1,-5.1231597E-2,6.304335E-3,-1.0228645E0,2.7658916E-1,-1.4357854E-1,-1.5269282E-1,1.174381E-1,-6.2895946E-2,-7.980704E-3,1.058867E-1,6.350455E-1,-5.116276E-2,-3.5211377E-2,-6.0429014E-2,-4.796393E-1,1.0534487E0,4.8199743E-2,1.1448015E-2,-1.5744178E-2,5.614547E-2,5.923323E-3,7.643744E-3,-3.082914E-2,-6.5012923E-3,3.6899894E-2,-2.9231725E-2,4.485346E-2,5.889287E-3,6.5959536E-2,-2.8541826E-3,2.4172533E-2],"categories":[],"categories_nodes":[],"categories_segments":[],"categories_sizes":[],"default_left":[0,0,0,0,0,0,0,0,0,0,0,0,0,0,0,0,0,0,0,0,0,0,0,0,0,0,0,0,0,0,0,0,0,0,0],"id":14,"left_children":[1,3,5,7,9,-1,11,13,15,17,19,-1,-1,21,23,-1,25,27,29,31,33,-1,-1,-1,-1,-1,-1,-1,-1,-1,-1,-1,-1,-1,-1],"loss_changes":[3.626006E0,3.5333726E0,1.8798778E0,3.8214777E0,4.1622458E0,0E0,8.410177E-1,4.889852E0,2.8070974E0,4.545405E0,5.880653E0,0E0,0E0,2.9761608E0,6.4028244E0,0E0,3.1110806E0,6.7314897E0,5.327939E0,1.4001117E0,3.980776E0,0E0,0E0,0E0,0E0,0E0,0E0,0E0,0E0,0E0,0E0,0E0,0E0,0E0,0E0],"parents":[2147483647,0,0,1,1,2,2,3,3,4,4,6,6,7,7,8,8,9,9,10,10,13,13,14,14,16,16,17,17,18,18,19,19,20,20],"right_children":[2,4,6,8,10,-1,12,14,16,18,20,-1,-1,22,24,-1,26,28,30,32,34,-1,-1,-1,-1,-1,-1,-1,-1,-1,-1,-1,-1,-1,-1],"split_conditions":[9.9708734E4,3.206316E-1,4.288207E1,-6.6417665E6,6.263489E0,6.304335E-3,1.4615724E1,2.3103364E3,-6.374294E6,7.48714E-1,-2.1616326E7,-6.2895946E-2,-7.980704E-3,4.3448334E1,6.425587E4,-5.116276E-2,2.3749214E-1,1.8372E-4,3.831167E3,6.5226665E0,4.939175E-1,1.1448015E-2,-1.5744178E-2,5.614547E-2,5.923323E-3,7.643744E-3,-3.082914E-2,-6.5012923E-3,3.6899894E-2,-2.9231725E-2,4.485346E-2,5.889287E-3,6.5959536E-2,-2.8541826E-3,2.4172533E-2],"split_indices":[3,5,0,6,2,0,4,1,6,5,6,0,0,0,3,0,5,8,1,2,7,0,0,0,0,0,0,0,0,0,0,0,0,0,0],"split_type":[0,0,0,0,0,0,0,0,0,0,0,0,0,0,0,0,0,0,0,0,0,0,0,0,0,0,0,0,0,0,0,0,0,0,0],"sum_hessian":[3.5583084E2,3.5000427E2,5.8265896E0,1.08837E2,2.4116727E2,1.6923155E0,4.1342745E0,8.001234E1,2.8824665E1,1.5064394E2,9.052332E1,2.890132E0,1.2441423E0,5.50785E1,2.4933834E1,2.2354867E0,2.6589178E1,1.18412834E2,3.22311E1,5.255888E0,8.526743E1,4.296675E1,1.2111748E1,1.2219675E1,1.2714159E1,2.06466E1,5.942578E0,1.096887E2,8.724136E0,3.0481737E1,1.7493627E0,1.4817963E0,3.7740915E0,6.9358955E1,1.5908478E1],"tree_param":{"num_deleted":"0","num_feature":"9","num_nodes":"35","size_leaf_vector":"1"}},{"base_weights":[2.3195702E-3,4.1660404E-1,-2.1220932E-2,6.29975E-2,8.267401E-1,-6.118194E-1,-1.9889285E-3,5.238514E-1,-5.331745E-1,6.173181E-2,2.09009E-1,-8.2597756E-1,2.11934E-2,-5.202528E-2,2.2897612E-1,1.0253069E0,-1.831811E-1,7.7843065E-3,-5.2809358E-2,-1.0980773E-2,3.4264278E-2,-8.035109E-3,-1.0175693E0,-3.897126E-2,-5.2263714E-2,-2.0000038E-1,5.376671E-1,9.273953E-3,6.521243E-2,3.2415874E-2,-4.2841192E-2,-1.678374E-2,-5.7073127E-2,-3.776375E-3,2.2526639E-2,-2.2721909E-2,2.0488687E-2,5.005395E-2,1.4570168E-2],"categories":[],"categories_nodes":[],"categories_segments":[],"categories_sizes":[],"default_left":[0,0,0,0,0,0,0,0,0,0,0,0,0,0,0,0,0,0,0,0,0,0,0,0,0,0,0,0,0,0,0,0,0,0,0,0,0,0,0],"id":15,"left_children":[1,3,5,7,9,11,13,15,17,-1,19,21,-1,23,25,27,29,-1,-1,-1,-1,-1,31,33,-1,35,37,-1,-1,-1,-1,-1,-1,-1,-1,-1,-1,-1,-1],"loss_changes":[3.4850469E0,2.7343688E0,3.8405373E0,3.411493E0,1.9625983E0,2.715256E0,3.809047E0,2.646317E0,2.1337333E0,0E0,1.1117733E0,1.0059795E0,0E0,3.471412E0,7.879499E0,7.439823E-1,2.6424053E0,0E0,0E0,0E0,0E0,0E0,2.0283031E-1,4.836904E0,0E0,4.1098485E0,3.634282E0,0E0,0E0,0E0,0E0,0E0,0E0,0E0,0E0,0E0,0E0,0E0,0E0],"parents":[2147483647,0,0,1,1,2,2,3,3,4,4,5,5,6,6,7,7,8,8,10,10,11,11,13,13,14,14,15,15,16,16,22,22,23,23,25,25,26,26],"right_children":[2,4,6,8,10,12,14,16,18,-1,20,22,-1,24,26,28,30,-1,-1,-1,-1,-1,32,34,-1,36,38,-1,-1,-1,-1,-1,-1,-1,-1,-1,-1,-1,-1],"split_conditions":[-2.3443412E7,8.2497296E2,-2.3070002E7,7.27677E2,2.908E-5,8.483365E-1,5.7140577E-1,1.026E-5,8.562021E0,6.173181E-2,2.695805E4,-2.3332856E7,2.11934E-2,3.1711256E1,1.4365589E1,2.615866E4,-4.2968184E-1,7.7843065E-3,-5.2809358E-2,-1.0980773E-2,3.4264278E-2,-8.035109E-3,-1.094E-5,1.8320438E1,-5.2263714E-2,5.8479E1,7.6205873E-1,9.273953E-3,6.521243E-2,3.2415874E-2,-4.2841192E-2,-1.678374E-2,-5.7073127E-2,-3.776375E-3,2.2526639E-2,-2.2721909E-2,2.0488687E-2,5.005395E-2,1.4570168E-2],"split_indices":[6,1,6,1,8,7,7,8,4,0,3,6,0,2,4,3,7,0,0,0,0,0,8,2,0,0,7,0,0,0,0,0,0,0,0,0,0,0,0],"split_type":[0,0,0,0,0,0,0,0,0,0,0,0,0,0,0,0,0,0,0,0,0,0,0,0,0,0,0,0,0,0,0,0,0,0,0,0,0,0,0],"sum_hessian":[3.5544385E2,1.8213358E1,3.372305E2,1.0400216E1,7.8131413E0,9.663392E0,3.2756708E2,5.9342337E0,4.465983E0,4.104333E0,3.7088087E0,8.17538E0,1.4880116E0,2.6987582E2,5.7691254E1,3.2084901E0,2.7257435E0,2.2305071E0,2.2354758E0,2.2356918E0,1.473117E0,2.2391214E0,5.936259E0,2.674007E2,2.4751446E0,2.4289347E1,3.340191E1,1.2150869E0,1.9934032E0,1.2367626E0,1.488981E0,1.483058E0,4.4532003E0,2.496058E2,1.7794895E1,1.7317919E1,6.9714293E0,1.0527153E1,2.2874754E1],"tree_param":{"num_deleted":"0","num_feature":"9","num_nodes":"39","size_leaf_vector":"1"}},{"base_weights":[2.412465E-3,1.586765E-2,-6.928087E-1,3.1121822E-2,-6.054624E-1,6.3133263E-3,-9.896929E-1,1.8034346E-1,-3.6685288E-2,2.2020605E-1,-1.0383655E0,-6.0950376E-2,-7.7571915E-3,-7.9473615E-2,2.9202417E-1,-1.3802151E-1,1.3324353E-1,5.805063E-2,-3.5933226E-2,-9.056938E-3,-6.176088E-2,2.3923175E-2,-1.1827308E-2,5.0187327E-2,1.0732092E-2,-2.3703983E-3,-2.3744866E-2,5.1126894E-2,3.298559E-3],"categories":[],"categories_nodes":[],"categories_segments":[],"categories_sizes":[],"default_left":[0,0,0,0,0,0,0,0,0,0,0,0,0,0,0,0,0,0,0,0,0,0,0,0,0,0,0,0,0],"id":16,"left_children":[1,3,5,7,9,-1,11,13,15,17,19,-1,-1,21,23,25,27,-1,-1,-1,-1,-1,-1,-1,-1,-1,-1,-1,-1],"loss_changes":[3.343229E0,3.3402514E0,1.7750688E0,3.4771066E0,3.2476444E0,0E0,7.856765E-1,3.1375914E0,4.0936728E0,4.1292896E0,7.408161E-1,0E0,0E0,3.0097694E0,3.930523E0,4.5179334E0,5.252046E0,0E0,0E0,0E0,0E0,0E0,0E0,0E0,0E0,0E0,0E0,0E0,0E0],"parents":[2147483647,0,0,1,1,2,2,3,3,4,4,6,6,7,7,8,8,9,9,10,10,13,13,14,14,15,15,16,16],"right_children":[2,4,6,8,10,-1,12,14,16,18,20,-1,-1,22,24,26,28,-1,-1,-1,-1,-1,-1,-1,-1,-1,-1,-1,-1],"split_conditions":[9.9708734E4,-1.9431479E6,4.288207E1,3.206316E-1,1.6877508E1,6.3133263E-3,1.4615724E1,-1.9028433E-1,6.263489E0,5.859115E4,5.4999887E4,-6.0950376E-2,-7.7571915E-3,8.9179504E2,2.055106E4,7.5187844E-1,-2.1616326E7,5.805063E-2,-3.5933226E-2,-9.056938E-3,-6.176088E-2,2.3923175E-2,-1.1827308E-2,5.0187327E-2,1.0732092E-2,-2.3703983E-3,-2.3744866E-2,5.1126894E-2,3.298559E-3],"split_indices":[3,6,0,5,4,0,4,7,2,3,3,0,0,1,3,5,6,0,0,0,0,0,0,0,0,0,0,0,0],"split_type":[0,0,0,0,0,0,0,0,0,0,0,0,0,0,0,0,0,0,0,0,0,0,0,0,0,0,0,0,0],"sum_hessian":[3.552239E2,3.494381E2,5.785786E0,3.4199185E2,7.4462748E0,1.6921102E0,4.093676E0,1.0633126E2,2.3566058E2,2.7302482E0,4.7160263E0,2.8499098E0,1.2437663E0,3.2052296E1,7.427897E1,1.477427E2,8.791787E1,1.2455372E0,1.4847109E0,1.2393289E0,3.4766977E0,6.5917215E0,2.5460575E1,6.110109E0,6.816886E1,1.17325096E2,3.0417612E1,5.18435E0,8.273352E1],"tree_param":{"num_deleted":"0","num_feature":"9","num_nodes":"29","size_leaf_vector":"1"}},{"base_weights":[2.2656175E-3,3.53492E-1,-2.3197712E-2,-3.6208278E-1,6.154668E-1,8.874773E-1,-3.406338E-2,-5.5802554E-2,8.5900545E-2,6.0635004E-2,9.0603846E-1,5.6441147E-2,9.971132E-3,-2.0691443E-2,-6.715829E-1,4.7107928E-2,-4.5547193E-1,5.2373048E-2,-4.7391978E-1,1.180745E0,-9.343163E-3,-3.8500704E-2,5.7594854E-1,6.115959E-3,-9.615608E-1,-4.968592E-2,7.5203604E-3,-4.3258958E-2,2.4274407E-2,6.580357E-2,1.3038674E-2,-4.3192143E-3,6.886018E-3,-3.2066464E-2,4.193704E-2,-5.9323367E-2,-7.544273E-3],"categories":[],"categories_nodes":[],"categories_segments":[],"categories_sizes":[],"default_left":[0,0,0,0,0,0,0,0,0,0,0,0,0,0,0,0,0,0,0,0,0,0,0,0,0,0,0,0,0,0,0,0,0,0,0,0,0],"id":17,"left_children":[1,3,5,7,9,11,13,-1,15,17,19,-1,-1,21,23,-1,25,-1,27,29,-1,31,33,-1,35,-1,-1,-1,-1,-1,-1,-1,-1,-1,-1,-1,-1],"loss_changes":[3.1915715E0,4.7449584E0,3.3235545E0,2.4920723E0,2.8515806E0,4.3268204E-1,2.7981417E0,0E0,2.922439E0,4.3305E0,3.7513742E0,0E0,0E0,3.4661589E0,1.6703935E0,0E0,1.4439199E0,0E0,2.4481802E0,8.438282E-1,0E0,2.6754732E0,3.5630949E0,0E0,7.42321E-1,0E0,0E0,0E0,0E0,0E0,0E0,0E0,0E0,0E0,0E0,0E0,0E0],"parents":[2147483647,0,0,1,1,2,2,3,3,4,4,5,5,6,6,8,8,9,9,10,10,13,13,14,14,16,16,18,18,19,19,21,21,22,22,24,24],"right_children":[2,4,6,8,10,12,14,-1,16,18,20,-1,-1,22,24,-1,26,-1,28,30,-1,32,34,-1,36,-1,-1,-1,-1,-1,-1,-1,-1,-1,-1,-1,-1],"split_conditions":[-1.36029415E1,-2.7035466E-1,3.8771927E2,1.1586417E3,2.8635627E-2,3.025048E-1,9.9708734E4,-5.5802554E-2,4.721578E4,-1.3072156E7,2.7065974E-1,5.6441147E-2,9.971132E-3,9.721919E4,4.288207E1,4.7107928E-2,-1.542889E1,5.2373048E-2,6.638566E-1,6.762555E1,-9.343163E-3,8.4018955E0,-4.761724E-1,6.115959E-3,1.4615724E1,-4.968592E-2,7.5203604E-3,-4.3258958E-2,2.4274407E-2,6.580357E-2,1.3038674E-2,-4.3192143E-3,6.886018E-3,-3.2066464E-2,4.193704E-2,-5.9323367E-2,-7.544273E-3],"split_indices":[2,7,1,1,5,7,3,0,3,6,5,0,0,3,0,0,2,0,7,4,0,2,7,0,4,0,0,0,0,0,0,0,0,0,0,0,0],"split_type":[0,0,0,0,0,0,0,0,0,0,0,0,0,0,0,0,0,0,0,0,0,0,0,0,0,0,0,0,0,0,0,0,0,0,0,0,0],"sum_hessian":[3.549467E2,2.3122734E1,3.3182394E2,6.094284E0,1.702845E1,2.9612126E0,3.2886273E2,1.7156013E0,4.3786826E0,6.268241E0,1.0760209E1,1.717998E0,1.2432146E0,3.2311783E2,5.7449236E0,1.4093226E0,2.9693599E0,1.8652874E0,4.4029536E0,8.534613E0,2.225596E0,3.146609E2,8.456924E0,1.6916628E0,4.053261E0,1.2334605E0,1.7358993E0,3.1972768E0,1.2056767E0,7.064831E0,1.4697819E0,2.4782939E2,6.683151E1,1.2458035E0,7.2111206E0,2.810098E0,1.2431629E0],"tree_param":{"num_deleted":"0","num_feature":"9","num_nodes":"37","size_leaf_vector":"1"}},{"base_weights":[2.36118E-3,3.981523E-1,-2.0078411E-2,5.9388895E-2,7.930985E-1,-5.91692E-1,-1.482849E-3,5.035585E-1,-5.1421654E-1,5.9356805E-2,2.0118032E-1,-8.0064255E-1,2.077032E-2,-4.8198976E-2,2.1457143E-1,9.940591E-1,-1.8563925E-1,7.733287E-3,-5.117297E-2,-1.0650865E-2,3.3144787E-2,-1.0633259E0,-2.3975027E-1,-3.5473775E-2,-5.0894316E-2,-1.8534759E-1,5.030901E-1,9.117452E-3,6.351697E-2,3.129637E-2,-4.1926168E-2,-2.1393828E-2,-6.642891E-2,2.8403213E-2,-5.2036114E-2,-3.4735666E-3,2.1000782E-2,-2.151039E-2,1.9965377E-2,4.76552E-2,1.3275194E-2],"categories":[],"categories_nodes":[],"categories_segments":[],"categories_sizes":[],"default_left":[0,0,0,0,0,0,0,0,0,0,0,0,0,0,0,0,0,0,0,0,0,0,0,0,0,0,0,0,0,0,0,0,0,0,0,0,0,0,0,0,0],"id":18,"left_children":[1,3,5,7,9,11,13,15,17,-1,19,21,-1,23,25,27,29,-1,-1,-1,-1,31,33,35,-1,37,39,-1,-1,-1,-1,-1,-1,-1,-1,-1,-1,-1,-1,-1,-1],"loss_changes":[3.1666224E0,2.512323E0,3.5867403E0,3.1578548E0,1.8023505E0,2.5698218E0,3.3197517E0,2.523128E0,2.0182185E0,0E0,1.0403451E0,1.0926604E0,0E0,3.3005912E0,6.840415E0,7.099924E-1,2.4953866E0,0E0,0E0,0E0,0E0,4.3240213E-1,3.3141704E0,4.178406E0,0E0,3.7847507E0,3.4076023E0,0E0,0E0,0E0,0E0,0E0,0E0,0E0,0E0,0E0,0E0,0E0,0E0,0E0,0E0],"parents":[2147483647,0,0,1,1,2,2,3,3,4,4,5,5,6,6,7,7,8,8,10,10,11,11,13,13,14,14,15,15,16,16,21,21,22,22,23,23,25,25,26,26],"right_children":[2,4,6,8,10,12,14,16,18,-1,20,22,-1,24,26,28,30,-1,-1,-1,-1,32,34,36,-1,38,40,-1,-1,-1,-1,-1,-1,-1,-1,-1,-1,-1,-1,-1,-1],"split_conditions":[-2.3443412E7,8.2497296E2,-2.3070002E7,7.27677E2,2.908E-5,8.483365E-1,5.7140577E-1,1.026E-5,8.562021E0,5.9356805E-2,2.695805E4,2.209E-5,2.077032E-2,3.1711256E1,1.4365589E1,3.9885544E1,-4.2968184E-1,7.733287E-3,-5.117297E-2,-1.0650865E-2,3.3144787E-2,-1.99E-6,-1.747638E0,1.8320438E1,-5.0894316E-2,5.8479E1,7.6205873E-1,9.117452E-3,6.351697E-2,3.129637E-2,-4.1926168E-2,-2.1393828E-2,-6.642891E-2,2.8403213E-2,-5.2036114E-2,-3.4735666E-3,2.1000782E-2,-2.151039E-2,1.9965377E-2,4.76552E-2,1.3275194E-2],"split_indices":[6,1,6,1,8,7,7,8,4,0,3,8,0,2,4,0,7,0,0,0,0,8,2,2,0,0,7,0,0,0,0,0,0,0,0,0,0,0,0,0,0],"split_type":[0,0,0,0,0,0,0,0,0,0,0,0,0,0,0,0,0,0,0,0,0,0,0,0,0,0,0,0,0,0,0,0,0,0,0,0,0,0,0,0,0],"sum_hessian":[3.5464566E2,1.8129686E1,3.36516E2,1.03782015E1,7.751485E0,9.631515E0,3.2688446E2,5.9178495E0,4.4603515E0,4.049905E0,3.70158E0,8.146332E0,1.4851825E0,2.6940872E2,5.7475727E1,3.198875E0,2.7189746E0,2.2289476E0,2.2314038E0,2.2351246E0,1.4664553E0,4.937957E0,3.2083752E0,2.6694223E2,2.4664986E0,2.4237474E1,3.3238255E1,1.2338485E0,1.9650264E0,1.2305857E0,1.488389E0,2.2237473E0,2.7142093E0,1.7421368E0,1.4662384E0,2.4919025E2,1.7751986E1,1.7269133E1,6.9683404E0,1.0444199E1,2.2794054E1],"tree_param":{"num_deleted":"0","num_feature":"9","num_nodes":"41","size_leaf_vector":"1"}},{"base_weights":[2.3503117E-3,8.6733234E-1,-7.3449486E-3,5.5110086E-2,9.838044E-3,1.3420038E-1,-7.254767E-2,3.0832523E-1,-3.3886377E-2,-4.917922E-1,-3.12265E-2,1.2158951E-1,6.937212E-1,-1.4875442E-1,4.082041E-1,6.873037E-1,-6.799482E-1,4.1545293E-1,-6.370818E-2,1.7719438E-2,-2.1593448E-2,5.1744428E-2,1.3821565E-2,3.904521E-2,-1.03216665E-2,-2.1914845E-2,3.2170292E-2,5.7836857E-2,-4.6907137E-3,-6.655077E-2,-2.1530522E-2,3.6926575E-2,-3.9078098E-2,-2.008811E-2,7.792144E-4],"categories":[],"categories_nodes":[],"categories_segments":[],"categories_sizes":[],"default_left":[0,0,0,0,0,0,0,0,0,0,0,0,0,0,0,0,0,0,0,0,0,0,0,0,0,0,0,0,0,0,0,0,0,0,0],"id":19,"left_children":[1,3,5,-1,-1,7,9,11,13,15,17,19,21,23,25,27,29,31,33,-1,-1,-1,-1,-1,-1,-1,-1,-1,-1,-1,-1,-1,-1,-1,-1],"loss_changes":[2.9866557E0,4.048562E-1,3.262372E0,0E0,0E0,3.2737832E0,4.175812E0,3.864089E0,2.9874794E0,5.26781E0,3.237214E0,5.071047E0,2.2330055E0,2.6535473E0,2.7017558E0,1.3827603E0,2.5376844E0,6.430072E0,5.5592337E0,0E0,0E0,0E0,0E0,0E0,0E0,0E0,0E0,0E0,0E0,0E0,0E0,0E0,0E0,0E0,0E0],"parents":[2147483647,0,0,1,1,2,2,5,5,6,6,7,7,8,8,9,9,10,10,11,11,12,12,13,13,14,14,15,15,16,16,17,17,18,18],"right_children":[2,4,6,-1,-1,8,10,12,14,16,18,20,22,24,26,28,30,32,34,-1,-1,-1,-1,-1,-1,-1,-1,-1,-1,-1,-1,-1,-1,-1,-1],"split_conditions":[3.8771927E2,3.025048E-1,3.206316E-1,5.5110086E-2,9.838044E-3,8.003E-5,3.6032122E-1,-5.616887E0,5.7140577E-1,-8.680497E0,4.5251728E1,3.9885544E1,2.5892428E-1,2.7901182E1,9.129872E0,3.348488E-1,4.1652435E1,2.6191036E1,5.0577057E1,1.7719438E-2,-2.1593448E-2,5.1744428E-2,1.3821565E-2,3.904521E-2,-1.03216665E-2,-2.1914845E-2,3.2170292E-2,5.7836857E-2,-4.6907137E-3,-6.655077E-2,-2.1530522E-2,3.6926575E-2,-3.9078098E-2,-2.008811E-2,7.792144E-4],"split_indices":[1,7,5,0,0,8,5,2,7,2,0,0,5,0,4,5,0,4,0,0,0,0,0,0,0,0,0,0,0,0,0,0,0,0,0],"split_type":[0,0,0,0,0,0,0,0,0,0,0,0,0,0,0,0,0,0,0,0,0,0,0,0,0,0,0,0,0,0,0,0,0,0,0],"sum_hessian":[3.5437863E2,2.9475513E0,3.514311E2,1.7062557E0,1.2412956E0,1.1049809E2,2.40933E2,5.3864414E1,5.663368E1,2.0638014E1,2.2029498E2,3.7169964E1,1.6694452E1,4.548013E1,1.1153548E1,2.4750516E0,1.8162964E1,1.4134243E1,2.0616075E2,2.6417675E1,1.0752289E1,8.370713E0,8.323738E0,1.924386E0,4.3555744E1,2.2374344E0,8.916114E0,1.2456012E0,1.2294505E0,3.8283174E0,1.4334645E1,1.1431786E1,2.702457E0,3.839621E1,1.6776453E2],"tree_param":{"num_deleted":"0","num_feature":"9","num_nodes":"35","size_leaf_vector":"1"}},{"base_weights":[2.5456406E-3,1.6688442E-2,-5.818492E-1,2.0116362E-1,-3.0598404E-2,2.1345595E-1,-1.000282E0,7.0270784E-2,4.1407523E-1,-1.6380142E-2,-8.7729895E-1,5.5921044E-2,-3.463916E-2,-8.744322E-3,-5.9494834E-2,7.4228823E-1,-4.597261E-2,-2.9318407E-1,6.6865665E-1,-8.3355695E-2,1.5146865E-1,-5.5310488E-2,-7.3541873E-3,5.144309E-2,-1.4601891E-2,-1.2055268E-2,1.9836143E-2,1.6388576E-2,-5.324722E-2,4.093453E-2,-1.074715E-2,-6.254896E-3,2.5356209E-2,-5.1503386E-3,1.8249614E-2],"categories":[],"categories_nodes":[],"categories_segments":[],"categories_sizes":[],"default_left":[0,0,0,0,0,0,0,0,0,0,0,0,0,0,0,0,0,0,0,0,0,0,0,0,0,0,0,0,0,0,0,0,0,0,0],"id":20,"left_children":[1,3,5,7,9,11,13,15,17,19,21,-1,-1,-1,-1,23,25,27,29,31,33,-1,-1,-1,-1,-1,-1,-1,-1,-1,-1,-1,-1,-1,-1],"loss_changes":[2.943829E0,3.0382683E0,3.0143058E0,1.9510074E0,3.3268065E0,3.8302653E0,6.825328E-1,3.5654473E0,5.0298405E0,3.0925758E0,6.002829E-1,0E0,0E0,0E0,0E0,2.293724E0,3.5061557E0,4.0874686E0,2.8333817E0,4.906199E0,4.302827E0,0E0,0E0,0E0,0E0,0E0,0E0,0E0,0E0,0E0,0E0,0E0,0E0,0E0,0E0],"parents":[2147483647,0,0,1,1,2,2,3,3,4,4,5,5,6,6,7,7,8,8,9,9,10,10,15,15,16,16,17,17,18,18,19,19,20,20],"right_children":[2,4,6,8,10,12,14,16,18,20,22,-1,-1,-1,-1,24,26,28,30,32,34,-1,-1,-1,-1,-1,-1,-1,-1,-1,-1,-1,-1,-1,-1],"split_conditions":[-1.9431479E6,2.1785773E-1,1.6877508E1,2.065995E1,9.9708734E4,5.859115E4,5.4999887E4,5.76E-6,-2.5493583E-1,2.982508E-1,1.4615724E1,5.5921044E-2,-3.463916E-2,-8.744322E-3,-5.9494834E-2,1.9285078E1,-5.1340146E0,-3.7572393E-1,-4.603446E6,1.8372E-4,1.4457735E1,-5.5310488E-2,-7.3541873E-3,5.144309E-2,-1.4601891E-2,-1.2055268E-2,1.9836143E-2,1.6388576E-2,-5.324722E-2,4.093453E-2,-1.074715E-2,-6.254896E-3,2.5356209E-2,-5.1503386E-3,1.8249614E-2],"split_indices":[6,5,4,4,3,3,3,8,7,7,4,0,0,0,0,4,2,7,6,8,4,0,0,0,0,0,0,0,0,0,0,0,0,0,0],"split_type":[0,0,0,0,0,0,0,0,0,0,0,0,0,0,0,0,0,0,0,0,0,0,0,0,0,0,0,0,0,0,0,0,0,0,0],"sum_hessian":[3.5400616E2,3.4658987E2,7.4162955E0,7.0051445E1,2.7653842E2,2.725628E0,4.6906676E0,4.4205215E1,2.5846233E1,2.7297385E2,3.564581E0,1.2466232E0,1.4790046E0,1.2353771E0,3.4552906E0,5.7246523E0,3.848056E1,6.800885E0,1.9045347E1,1.9547726E2,7.749657E1,2.3218188E0,1.2427621E0,4.486807E0,1.2378453E0,2.7024141E1,1.1456419E1,4.0874395E0,2.7134457E0,1.6343676E1,2.7016714E0,1.8330707E2,1.2170204E1,3.5593803E1,4.1902763E1],"tree_param":{"num_deleted":"0","num_feature":"9","num_nodes":"35","size_leaf_vector":"1"}},{"base_weights":[2.314426E-3,2.8390206E-2,-3.0635536E-1,1.9205824E-2,6.099419E-2,-1.1078492E-1,-8.468235E-1,-4.7971434E-3,4.288054E-1,-3.3856446E-1,8.313467E-1,8.4089674E-4,-5.8969546E-2,1.5859266E-1,-9.0315044E-2,7.0416325E-1,-2.8830478E-1,-7.280126E-1,3.6155723E-2,1.729707E-2,5.411641E-2,-5.034017E-3,1.3502016E-2,-1.3210587E-2,3.0938531E-3,-7.933713E-3,5.7729404E-2,1.6834633E-2,-4.854618E-2,-5.6875483E-3,-6.227958E-2,5.7401862E-2,-1.2458002E-2],"categories":[],"categories_nodes":[],"categories_segments":[],"categories_sizes":[],"default_left":[0,0,0,0,0,0,0,0,0,0,0,0,0,0,0,0,0,0,0,0,0,0,0,0,0,0,0,0,0,0,0,0,0],"id":21,"left_children":[1,3,5,7,-1,9,11,13,15,17,19,-1,-1,21,23,25,27,29,31,-1,-1,-1,-1,-1,-1,-1,-1,-1,-1,-1,-1,-1,-1],"loss_changes":[2.863268E0,3.5653274E0,2.835299E0,3.2116177E0,0E0,4.895118E0,2.0914507E0,4.337085E0,3.7736318E0,2.656609E0,1.707828E-1,0E0,0E0,3.1090004E0,5.407851E0,5.373963E0,2.770016E0,2.683279E0,3.502285E0,0E0,0E0,0E0,0E0,0E0,0E0,0E0,0E0,0E0,0E0,0E0,0E0,0E0,0E0],"parents":[2147483647,0,0,1,1,2,2,3,3,5,5,6,6,7,7,8,8,9,9,10,10,13,13,14,14,15,15,16,16,17,17,18,18],"right_children":[2,4,6,8,-1,10,12,14,16,18,20,-1,-1,22,24,26,28,30,32,-1,-1,-1,-1,-1,-1,-1,-1,-1,-1,-1,-1,-1,-1],"split_conditions":[-3.3393305E6,-3.3911732E6,8.595588E-1,1.029281E0,6.099419E-2,1.0070313E1,6.6781166E1,3.206316E-1,2.278242E1,1.8372E-4,1.9434414E1,8.4089674E-4,-5.8969546E-2,-1.9028433E-1,9.74E-5,1.0306078E1,9.527115E-2,5.322572E1,1.2809133E1,1.729707E-2,5.411641E-2,-5.034017E-3,1.3502016E-2,-1.3210587E-2,3.0938531E-3,-7.933713E-3,5.7729404E-2,1.6834633E-2,-4.854618E-2,-5.6875483E-3,-6.227958E-2,5.7401862E-2,-1.2458002E-2],"split_indices":[6,6,5,5,0,2,0,5,4,8,2,0,0,7,8,4,7,0,4,0,0,0,0,0,0,0,0,0,0,0,0,0,0],"split_type":[0,0,0,0,0,0,0,0,0,0,0,0,0,0,0,0,0,0,0,0,0,0,0,0,0,0,0,0,0,0,0,0,0],"sum_hessian":[3.5365762E2,3.2694595E2,2.6711687E1,3.2545337E2,1.4925709E0,2.049902E1,6.2126684E0,3.0837082E2,1.7082567E1,1.7023806E1,3.4752128E0,1.9911914E0,4.221477E0,1.0565422E2,2.027166E2,1.2356095E1,4.7264714E0,7.885529E0,9.138277E0,1.9950616E0,1.480151E0,3.1791273E1,7.3862946E1,9.4268326E1,1.08448265E2,4.46007E0,7.8960247E0,2.731921E0,1.9945503E0,4.163761E0,3.7217684E0,1.2486234E0,7.8896537E0],"tree_param":{"num_deleted":"0","num_feature":"9","num_nodes":"33","size_leaf_vector":"1"}},{"base_weights":[2.390723E-3,8.542087E-1,-7.1561984E-3,5.4054733E-2,1.0015005E-2,4.818609E-3,-6.303467E-1,-1.042344E-2,5.496719E-1,-1.3519901E-1,-5.7262044E-2,1.4151832E-1,-6.719793E-2,-1.5659532E-1,1.0383848E0,2.9239202E-2,-5.601149E-1,9.167843E-3,-3.2275822E-2,-6.932006E-3,6.166465E-3,3.2945156E-2,-3.1872284E-2,9.311689E-3,6.828909E-2,-7.3701487E-4,-4.2780418E-2],"categories":[],"categories_nodes":[],"categories_segments":[],"categories_sizes":[],"default_left":[0,0,0,0,0,0,0,0,0,0,0,0,0,0,0,0,0,0,0,0,0,0,0,0,0,0,0],"id":22,"left_children":[1,3,5,-1,-1,7,9,11,13,15,-1,17,19,21,23,-1,25,-1,-1,-1,-1,-1,-1,-1,-1,-1,-1],"loss_changes":[2.8882601E0,3.6747217E-1,2.6259396E0,0E0,0E0,2.8778179E0,1.536478E0,2.9201453E0,3.4175E0,1.7090356E0,0E0,3.1511717E0,3.3697424E0,2.2730691E0,1.3371477E0,0E0,5.273378E-1,0E0,0E0,0E0,0E0,0E0,0E0,0E0,0E0,0E0,0E0],"parents":[2147483647,0,0,1,1,2,2,5,5,6,6,7,7,8,8,9,9,11,11,12,12,13,13,14,14,16,16],"right_children":[2,4,6,-1,-1,8,10,12,14,16,-1,18,20,22,24,-1,26,-1,-1,-1,-1,-1,-1,-1,-1,-1,-1],"split_conditions":[3.8771927E2,3.025048E-1,9.9708734E4,5.4054733E-2,1.0015005E-2,9.721919E4,4.3744277E3,2.8995433E-1,1E-4,1.720022E-1,-5.7262044E-2,-3.1902755E6,8.4018955E0,9.800448E4,-2.3656638E-1,2.9239202E-2,2.8275172E-3,9.167843E-3,-3.2275822E-2,-6.932006E-3,6.166465E-3,3.2945156E-2,-3.1872284E-2,9.311689E-3,6.828909E-2,-7.3701487E-4,-4.2780418E-2],"split_indices":[1,7,3,0,0,3,1,5,8,5,0,6,2,3,7,0,7,0,0,0,0,0,0,0,0,0,0],"split_type":[0,0,0,0,0,0,0,0,0,0,0,0,0,0,0,0,0,0,0,0,0,0,0,0,0,0,0],"sum_hessian":[3.5341003E2,2.9364047E0,3.5047363E2,1.6950085E0,1.2413963E0,3.448397E2,5.6339383E0,3.3640964E2,8.430053E0,3.5156715E0,2.1182668E0,9.110331E1,2.4530634E2,3.725579E0,4.704474E0,1.1651653E0,2.3505063E0,8.7233055E1,3.8702536E0,1.7860641E2,6.6699905E1,1.2445672E0,2.4810119E0,1.7412281E0,2.9632456E0,1.1949472E0,1.155559E0],"tree_param":{"num_deleted":"0","num_feature":"9","num_nodes":"27","size_leaf_vector":"1"}},{"base_weights":[2.406788E-3,3.531282E-1,-2.0400055E-2,1.6438069E-2,7.7250695E-1,-6.325536E-2,-6.513055E-3,4.366364E-1,-5.208678E-1,1.0382594E0,-9.626227E-3,-5.04165E-2,1.9528574E-1,8.178198E-2,5.864028E-2,7.6727876E-3,-9.392307E-1,8.5386345E-3,1.2627218E0,-3.8409144E-2,-4.884554E-2,-1.3983065E-1,4.8639616E-1,4.06772E-2,-2.0674907E-2,-1.14008635E-2,-5.889898E-2,6.9648944E-2,1.8680517E-2,-3.5250508E-3,1.983325E-2,-1.9464081E-2,2.2208933E-2,5.3611677E-2,1.2236217E-2],"categories":[],"categories_nodes":[],"categories_segments":[],"categories_sizes":[],"default_left":[0,0,0,0,0,0,0,0,0,0,0,0,0,0,0,0,0,0,0,0,0,0,0,0,0,0,0,0,0,0,0,0,0,0,0],"id":23,"left_children":[1,3,5,7,9,-1,11,13,15,17,-1,19,21,23,-1,-1,25,-1,27,29,-1,31,33,-1,-1,-1,-1,-1,-1,-1,-1,-1,-1,-1,-1],"loss_changes":[2.8399775E0,3.0482678E0,5.7558656E0,3.1729438E0,2.6700797E0,0E0,2.9405808E0,1.9586589E0,1.8879547E0,1.2853622E0,0E0,2.9937696E0,5.8543987E0,2.6493425E0,0E0,0E0,4.0297914E-1,0E0,1.706953E-1,3.7983081E0,0E0,4.302907E0,4.2630887E0,0E0,0E0,0E0,0E0,0E0,0E0,0E0,0E0,0E0,0E0,0E0,0E0],"parents":[2147483647,0,0,1,1,2,2,3,3,4,4,6,6,7,7,8,8,9,9,11,11,12,12,13,13,16,16,18,18,19,19,21,21,22,22],"right_children":[2,4,6,8,10,-1,12,14,16,18,-1,20,22,24,-1,-1,26,-1,28,30,-1,32,34,-1,-1,-1,-1,-1,-1,-1,-1,-1,-1,-1,-1],"split_conditions":[-2.3332856E7,8.2497296E2,-2.3283216E7,7.27677E2,4.5106083E-1,-6.325536E-2,5.7140577E-1,7.1109045E2,8.562021E0,9.592821E0,-9.626227E-3,3.1711256E1,1.5514681E1,6.404066E2,5.864028E-2,7.6727876E-3,1.171097E-1,8.5386345E-3,1.0095288E3,1.8320438E1,-4.884554E-2,5.8479E1,1.9236868E1,4.06772E-2,-2.0674907E-2,-1.14008635E-2,-5.889898E-2,6.9648944E-2,1.8680517E-2,-3.5250508E-3,1.983325E-2,-1.9464081E-2,2.2208933E-2,5.3611677E-2,1.2236217E-2],"split_indices":[6,1,6,1,7,0,7,1,4,4,0,2,4,1,0,0,5,0,1,2,0,0,4,0,0,0,0,0,0,0,0,0,0,0,0],"split_type":[0,0,0,0,0,0,0,0,0,0,0,0,0,0,0,0,0,0,0,0,0,0,0,0,0,0,0,0,0,0,0,0,0,0,0],"sum_hessian":[3.5314774E2,2.0678123E1,3.324696E2,1.2046234E1,8.631889E0,2.6742413E0,3.2979535E2,6.864912E0,5.1813216E0,6.708584E0,1.9233053E0,2.714818E2,5.8313553E1,5.381816E0,1.4830962E0,2.2262375E0,2.9550843E0,1.7409787E0,4.967605E0,2.6903656E2,2.4452553E0,2.7349457E1,3.0964096E1,1.9129274E0,3.4688885E0,1.2340375E0,1.7210467E0,3.8385403E0,1.1290647E0,2.5133554E2,1.7701017E1,1.9397524E1,7.951934E0,8.039291E0,2.2924805E1],"tree_param":{"num_deleted":"0","num_feature":"9","num_nodes":"35","size_leaf_vector":"1"}},{"base_weights":[2.5084296E-3,8.2891047E-1,-6.712511E-3,5.2494127E-2,9.730669E-3,3.0553472E-1,-2.9180381E-2,-3.4396374E-1,5.4748046E-1,-1.7202547E-2,-6.114942E-1,-5.3780623E-2,8.9947216E-2,-9.082924E-3,8.436912E-1,-4.2639054E-2,3.4415212E-1,-1.2780792E-1,-5.585837E-2,4.562113E-2,-2.145278E-2,4.825571E-2,-2.5651682E-2,5.5525567E-2,-9.300719E-3,-2.2454582E-2,-1.103198E-3,2.9756635E-2,-1.5633631E-2,2.896366E-2,-2.734808E-2],"categories":[],"categories_nodes":[],"categories_segments":[],"categories_sizes":[],"default_left":[0,0,0,0,0,0,0,0,0,0,0,0,0,0,0,0,0,0,0,0,0,0,0,0,0,0,0,0,0,0,0],"id":24,"left_children":[1,3,5,-1,-1,7,9,11,13,15,17,-1,19,21,23,25,27,29,-1,-1,-1,-1,-1,-1,-1,-1,-1,-1,-1,-1,-1],"loss_changes":[2.7020643E0,3.4410882E-1,2.4710095E0,0E0,0E0,3.9039314E0,2.279357E0,2.3290555E0,2.9113789E0,2.9809542E0,1.4685485E0,0E0,2.669538E0,3.9844425E0,3.3677797E0,2.518863E0,3.7028325E0,1.6494545E0,0E0,0E0,0E0,0E0,0E0,0E0,0E0,0E0,0E0,0E0,0E0,0E0,0E0],"parents":[2147483647,0,0,1,1,2,2,5,5,6,6,7,7,8,8,9,9,10,10,12,12,13,13,14,14,15,15,16,16,17,17],"right_children":[2,4,6,-1,-1,8,10,12,14,16,18,-1,20,22,24,26,28,30,-1,-1,-1,-1,-1,-1,-1,-1,-1,-1,-1,-1,-1],"split_conditions":[3.8771927E2,3.025048E-1,-1.36029415E1,5.2494127E-2,9.730669E-3,-2.7035466E-1,9.9708734E4,1.1586417E3,2.8635627E-2,3.7866174E3,4.3744277E3,-5.3780623E-2,4.721578E4,-1.3072156E7,2.7065974E-1,-1.0913494E1,2.1003555E1,4.4935352E1,-5.585837E-2,4.562113E-2,-2.145278E-2,4.825571E-2,-2.5651682E-2,5.5525567E-2,-9.300719E-3,-2.2454582E-2,-1.103198E-3,2.9756635E-2,-1.5633631E-2,2.896366E-2,-2.734808E-2],"split_indices":[1,7,2,0,0,7,3,1,5,1,1,0,3,6,5,2,4,0,0,0,0,0,0,0,0,0,0,0,0,0,0],"split_type":[0,0,0,0,0,0,0,0,0,0,0,0,0,0,0,0,0,0,0,0,0,0,0,0,0,0,0,0,0,0,0],"sum_hessian":[3.528619E2,2.912832E0,3.499491E2,1.6743448E0,1.2384872E0,2.264476E1,3.2730432E2,6.031544E0,1.6613216E1,3.2171637E2,5.587965E0,1.6948526E0,4.336692E0,6.1072917E0,1.0505925E1,3.0138336E2,2.0333E1,3.4963684E0,2.0915966E0,1.3845439E0,2.952148E0,1.7701952E0,4.337096E0,8.28152E0,2.2244053E0,1.3517799E1,2.8786557E2,1.4779501E1,5.5535E0,1.15908E0,2.3372886E0],"tree_param":{"num_deleted":"0","num_feature":"9","num_nodes":"31","size_leaf_vector":"1"}},{"base_weights":[2.5032768E-3,3.416695E-1,-1.9490665E-2,1.7854229E-2,7.460605E-1,-6.127107E-2,-6.1333245E-3,5.3891953E-2,-1.8522668E-1,1.0041718E0,-9.172455E-3,-4.7803562E-2,1.8576284E-1,2.0594604E-1,-6.065541E-1,8.302935E-3,1.2230402E0,-3.6209866E-2,-4.7308695E-2,-1.3352016E-1,4.6388128E-1,4.621002E-2,-1.914042E-2,-4.3430056E-2,1.0798277E-2,6.7531176E-2,1.779012E-2,-3.3428867E-3,1.8972127E-2,-1.857067E-2,2.1136558E-2,6.811224E-2,1.5426117E-2],"categories":[],"categories_nodes":[],"categories_segments":[],"categories_sizes":[],"default_left":[0,0,0,0,0,0,0,0,0,0,0,0,0,0,0,0,0,0,0,0,0,0,0,0,0,0,0,0,0,0,0,0,0],"id":25,"left_children":[1,3,5,7,9,-1,11,-1,13,15,-1,17,19,21,23,-1,25,27,-1,29,31,-1,-1,-1,-1,-1,-1,-1,-1,-1,-1,-1,-1],"loss_changes":[2.6443386E0,2.813482E0,5.3565855E0,3.000736E0,2.481367E0,0E0,2.6505964E0,0E0,2.0653443E0,1.199883E0,0E0,2.8010316E0,5.3138876E0,3.251251E0,1.4639633E0,0E0,1.7307758E-1,3.4622078E0,0E0,3.9033692E0,4.0226817E0,0E0,0E0,0E0,0E0,0E0,0E0,0E0,0E0,0E0,0E0,0E0,0E0],"parents":[2147483647,0,0,1,1,2,2,3,3,4,4,6,6,8,8,9,9,11,11,12,12,13,13,14,14,16,16,17,17,19,19,20,20],"right_children":[2,4,6,8,10,-1,12,-1,14,16,-1,18,20,22,24,-1,26,28,-1,30,32,-1,-1,-1,-1,-1,-1,-1,-1,-1,-1,-1,-1],"split_conditions":[-2.3332856E7,8.2497296E2,-2.3283216E7,7.3506737E0,4.5106083E-1,-6.127107E-2,5.7140577E-1,5.3891953E-2,7.27677E2,9.592821E0,-9.172455E-3,3.1711256E1,1.5514681E1,3.4498298E-1,3.025048E-1,8.302935E-3,1.0095288E3,1.8320438E1,-4.7308695E-2,5.8479E1,1.6904957E1,4.621002E-2,-1.914042E-2,-4.3430056E-2,1.0798277E-2,6.7531176E-2,1.779012E-2,-3.3428867E-3,1.8972127E-2,-1.857067E-2,2.1136558E-2,6.811224E-2,1.5426117E-2],"split_indices":[6,1,6,4,7,0,7,0,1,4,0,2,4,5,7,0,1,2,0,0,4,0,0,0,0,0,0,0,0,0,0,0,0],"split_type":[0,0,0,0,0,0,0,0,0,0,0,0,0,0,0,0,0,0,0,0,0,0,0,0,0,0,0,0,0,0,0,0,0],"sum_hessian":[3.5259518E2,2.0587215E1,3.3200797E2,1.2012434E1,8.574781E0,2.6430824E0,3.293649E2,1.2388414E0,1.0773593E1,6.648316E0,1.9264655E0,2.712203E2,5.8144585E1,5.8518033E0,4.921789E0,1.7408372E0,4.907479E0,2.6879178E2,2.4285197E0,2.7311083E1,3.0833502E1,2.3793483E0,3.472455E0,3.6901252E0,1.2316641E0,3.7922049E0,1.1152738E0,2.5111511E2,1.7676666E1,1.9362549E1,7.948533E0,3.4006817E0,2.743282E1],"tree_param":{"num_deleted":"0","num_feature":"9","num_nodes":"33","size_leaf_vector":"1"}},{"base_weights":[2.7429098E-3,1.5870595E-2,-5.412738E-1,2.7462961E-2,-5.9017944E-1,2.2441243E-1,-9.483154E-1,-8.317166E-2,9.51773E-2,-1.1747922E-1,-5.441702E-2,5.4442972E-2,-3.2658715E-2,-7.845915E-3,-5.664897E-2,1.4754865E-1,-2.4548803E-1,4.9523774E-1,4.410364E-2,2.8464157E-2,-5.2798694E-1,2.9085749E-3,5.6852974E-2,5.6655644E-3,-2.282671E-2,7.6498906E-4,5.0665088E-2,-1.8035945E-2,4.2954874E-3,2.1205403E-4,-4.1308384E-2],"categories":[],"categories_nodes":[],"categories_segments":[],"categories_sizes":[],"default_left":[0,0,0,0,0,0,0,0,0,0,0,0,0,0,0,0,0,0,0,0,0,0,0,0,0,0,0,0,0,0,0],"id":26,"left_children":[1,3,5,7,9,11,13,15,17,19,-1,-1,-1,-1,-1,21,23,25,27,-1,29,-1,-1,-1,-1,-1,-1,-1,-1,-1,-1],"loss_changes":[2.5315852E0,2.4465227E0,2.8160267E0,2.5579495E0,1.4114892E0,3.5240002E0,6.471658E-1,4.896062E0,4.3020554E0,1.5622394E0,0E0,0E0,0E0,0E0,0E0,4.7287865E0,5.8485613E0,5.916982E0,3.225543E0,0E0,5.3035545E-1,0E0,0E0,0E0,0E0,0E0,0E0,0E0,0E0,0E0,0E0],"parents":[2147483647,0,0,1,1,2,2,3,3,4,4,5,5,6,6,7,7,8,8,9,9,15,15,16,16,17,17,18,18,20,20],"right_children":[2,4,6,8,10,12,14,16,18,20,-1,-1,-1,-1,-1,22,24,26,28,-1,30,-1,-1,-1,-1,-1,-1,-1,-1,-1,-1],"split_conditions":[-1.9431479E6,9.9708734E4,1.6877508E1,3.1874135E4,4.3744277E3,5.859115E4,5.4999887E4,-2.1895258E7,-1.6835864E7,1.720022E-1,-5.441702E-2,5.4442972E-2,-3.2658715E-2,-7.845915E-3,-5.664897E-2,6.3401055E0,4.6810566E1,6.992596E-2,1.0884427E1,2.8464157E-2,2.8275172E-3,2.9085749E-3,5.6852974E-2,5.6655644E-3,-2.282671E-2,7.6498906E-4,5.0665088E-2,-1.8035945E-2,4.2954874E-3,2.1205403E-4,-4.1308384E-2],"split_indices":[6,3,4,3,1,3,3,6,6,5,0,0,0,0,0,2,0,7,4,0,7,0,0,0,0,0,0,0,0,0,0],"split_type":[0,0,0,0,0,0,0,0,0,0,0,0,0,0,0,0,0,0,0,0,0,0,0,0,0,0,0,0,0,0,0],"sum_hessian":[3.5227753E2,3.4492496E2,7.352569E0,3.3938794E2,5.537038E0,2.7077305E0,4.644839E0,1.2876987E2,2.1061806E2,3.4752405E0,2.0617976E0,1.2427977E0,1.4649327E0,1.2287312E0,3.4161077E0,5.3216988E1,7.555289E1,2.285988E1,1.8775818E2,1.1554472E0,2.3197932E0,4.9779465E1,3.437521E0,2.8153038E1,4.739985E1,1.2401022E1,1.04588585E1,1.6860823E1,1.7089735E2,1.1869541E0,1.132839E0],"tree_param":{"num_deleted":"0","num_feature":"9","num_nodes":"31","size_leaf_vector":"1"}},{"base_weights":[2.5222413E-3,8.0308884E-1,-6.3692667E-3,5.101494E-2,9.300027E-3,1.7137771E-2,-2.822693E-1,5.9679816E-3,9.724859E-1,-8.8115446E-2,-8.2049125E-1,1.9054227E-1,-3.7607387E-2,1.3155897E-2,6.1082877E-2,-3.0359927E-1,7.984176E-1,7.0480496E-4,-5.7120334E-2,1.5571225E-3,2.3177091E-2,-6.2402864E-3,4.228753E-3,-4.982583E-3,-5.2861508E-2,1.7023873E-2,5.153305E-2],"categories":[],"categories_nodes":[],"categories_segments":[],"categories_sizes":[],"default_left":[0,0,0,0,0,0,0,0,0,0,0,0,0,0,0,0,0,0,0,0,0,0,0,0,0,0,0],"id":27,"left_children":[1,3,5,-1,-1,7,9,11,13,15,17,19,21,-1,-1,23,25,-1,-1,-1,-1,-1,-1,-1,-1,-1,-1],"loss_changes":[2.5178335E0,3.310101E-1,2.2755187E0,0E0,0E0,3.4469855E0,2.8061152E0,2.5875926E0,3.3841872E-1,4.323493E0,1.9456549E0,2.6592903E0,2.7847884E0,0E0,0E0,2.6475048E0,1.2265158E-1,0E0,0E0,0E0,0E0,0E0,0E0,0E0,0E0,0E0,0E0],"parents":[2147483647,0,0,1,1,2,2,5,5,6,6,7,7,8,8,9,9,10,10,11,11,12,12,15,15,16,16],"right_children":[2,4,6,-1,-1,8,10,12,14,16,18,20,22,-1,-1,24,26,-1,-1,-1,-1,-1,-1,-1,-1,-1,-1],"split_conditions":[3.8771927E2,3.025048E-1,-3.3393305E6,5.101494E-2,9.300027E-3,-3.4341218E6,8.595588E-1,2.0226943E-1,1.7909212E1,1.0070313E1,6.6781166E1,2.065995E1,5.637334E1,1.3155897E-2,6.1082877E-2,4.9658937E0,1.9434414E1,7.0480496E-4,-5.7120334E-2,1.5571225E-3,2.3177091E-2,-6.2402864E-3,4.228753E-3,-4.982583E-3,-5.2861508E-2,1.7023873E-2,5.153305E-2],"split_indices":[1,7,6,0,0,6,5,5,4,2,0,4,0,0,0,2,2,0,0,0,0,0,0,0,0,0,0],"split_type":[0,0,0,0,0,0,0,0,0,0,0,0,0,0,0,0,0,0,0,0,0,0,0,0,0,0,0],"sum_hessian":[3.5199695E2,2.88537E0,3.4911157E2,1.6508696E0,1.2345004E0,3.225664E2,2.6545187E1,3.198332E2,2.7331958E0,2.0363234E1,6.1819534E0,6.044227E1,2.5939093E2,1.2449402E0,1.4882557E0,1.6910461E1,3.4527726E0,1.9869261E0,4.1950274E0,3.8864197E1,2.1578074E1,1.5135292E2,1.08038E2,1.419991E1,2.7105513E0,1.9916505E0,1.4611222E0],"tree_param":{"num_deleted":"0","num_feature":"9","num_nodes":"27","size_leaf_vector":"1"}},{"base_weights":[2.7154745E-3,3.5586348E-1,-1.7082367E-2,6.2219456E-2,7.016096E-1,-5.5088E-1,1.6267823E-4,5.1864636E-1,-4.0626743E-1,5.4107793E-2,1.547779E-1,-7.558838E-1,2.1010717E-2,9.364826E-1,-1.0555803E-2,-2.2724856E-2,9.19624E-1,1.3921209E-1,-4.7291216E-2,-1.1601563E-2,3.0111387E-2,-1.0063363E0,-2.1959978E-1,1.333343E-2,5.823424E-2,1.422043E-1,-7.096057E-2,1.3234125E-2,5.397367E-2,3.4872174E-2,-2.9349832E-2,-2.040439E-2,-6.268842E-2,2.6193717E-2,-4.8284587E-2,6.867643E-5,2.7757535E-2,-5.211342E-3,2.0831598E-2],"categories":[],"categories_nodes":[],"categories_segments":[],"categories_sizes":[],"default_left":[0,0,0,0,0,0,0,0,0,0,0,0,0,0,0,0,0,0,0,0,0,0,0,0,0,0,0,0,0,0,0,0,0,0,0,0,0,0,0],"id":28,"left_children":[1,3,5,7,9,11,13,15,17,-1,19,21,-1,23,25,-1,27,29,-1,-1,-1,31,33,-1,-1,35,37,-1,-1,-1,-1,-1,-1,-1,-1,-1,-1,-1,-1],"loss_changes":[2.4727046E0,1.862421E0,3.084124E0,2.6161556E0,1.6064854E0,2.404972E0,3.2769892E0,2.812779E0,1.9305611E0,0E0,9.47151E-1,9.8980427E-1,0E0,2.5429606E-1,2.9891248E0,0E0,2.039392E-1,1.9949102E0,0E0,0E0,0E0,3.566432E-1,2.8072944E0,0E0,0E0,5.338958E0,3.8069968E0,0E0,0E0,0E0,0E0,0E0,0E0,0E0,0E0,0E0,0E0,0E0,0E0],"parents":[2147483647,0,0,1,1,2,2,3,3,4,4,5,5,6,6,7,7,8,8,10,10,11,11,13,13,14,14,16,16,17,17,21,21,22,22,25,25,26,26],"right_children":[2,4,6,8,10,12,14,16,18,-1,20,22,-1,24,26,-1,28,30,-1,-1,-1,32,34,-1,-1,36,38,-1,-1,-1,-1,-1,-1,-1,-1,-1,-1,-1,-1],"split_conditions":[-2.3443412E7,8.2497296E2,-2.3070002E7,8.651669E0,2.908E-5,8.483365E-1,-2.2952798E7,4.0203167E1,7.27677E2,5.4107793E-2,2.695805E4,2.209E-5,2.1010717E-2,4.690988E1,4.3782986E1,-2.2724856E-2,-5.216327E-1,4.510887E1,-4.7291216E-2,-1.1601563E-2,3.0111387E-2,-1.99E-6,-1.747638E0,1.333343E-2,5.823424E-2,4.1652435E1,4.089187E1,1.3234125E-2,5.397367E-2,3.4872174E-2,-2.9349832E-2,-2.040439E-2,-6.268842E-2,2.6193717E-2,-4.8284587E-2,6.867643E-5,2.7757535E-2,-5.211342E-3,2.0831598E-2],"split_indices":[6,1,6,4,8,7,6,0,1,0,3,8,0,0,0,0,7,0,0,0,0,8,2,0,0,0,4,0,0,0,0,0,0,0,0,0,0,0,0],"split_type":[0,0,0,0,0,0,0,0,0,0,0,0,0,0,0,0,0,0,0,0,0,0,0,0,0,0,0,0,0,0,0,0,0,0,0,0,0,0,0],"sum_hessian":[3.5180002E2,1.7774202E1,3.3402582E2,1.024934E1,7.5248623E0,9.485027E0,3.2454077E2,5.1372595E0,5.1120806E0,3.859817E0,3.6650453E0,8.014694E0,1.4703331E0,2.6955824E0,3.2184518E2,1.4601383E0,3.6771214E0,2.9110572E0,2.2010233E0,2.2239406E0,1.4411045E0,4.8657975E0,3.148897E0,1.2360675E0,1.459515E0,9.081789E1,2.3102731E2,1.2424264E0,2.434695E0,1.6682757E0,1.2427814E0,2.19879E0,2.6670072E0,1.7263981E0,1.4224987E0,6.847021E1,2.2347677E1,2.1700806E2,1.4019256E1],"tree_param":{"num_deleted":"0","num_feature":"9","num_nodes":"39","size_leaf_vector":"1"}},{"base_weights":[2.885303E-3,7.788618E-1,-5.683224E-3,8.68915E-3,4.980004E-2,6.5554325E-3,-5.100254E-1,-1.0485237E-1,7.15363E-2,2.2852927E-1,-9.0623045E-1,3.1697387E-1,-1.7431164E-1,4.7623643E-1,2.1533212E-2,5.3229433E-2,-3.1390734E-2,-5.4736655E-2,-6.7227604E-3,2.9226303E-2,-6.6985125E-3,-1.3839409E-2,6.6453326E-3,2.086067E-3,5.0338227E-2,4.098403E-2,-1.1104123E-5],"categories":[],"categories_nodes":[],"categories_segments":[],"categories_sizes":[],"default_left":[0,0,0,0,0,0,0,0,0,0,0,0,0,0,0,0,0,0,0,0,0,0,0,0,0,0,0],"id":29,"left_children":[1,3,5,-1,-1,7,9,11,13,15,17,19,21,23,25,-1,-1,-1,-1,-1,-1,-1,-1,-1,-1,-1,-1],"loss_changes":[2.3485436E0,3.3376098E-1,2.161828E0,0E0,0E0,2.4862473E0,2.6351225E0,3.7629442E0,4.378065E0,3.3143368E0,6.6777086E-1,2.2796934E0,3.4777675E0,5.4443874E0,3.3697305E0,0E0,0E0,0E0,0E0,0E0,0E0,0E0,0E0,0E0,0E0,0E0,0E0],"parents":[2147483647,0,0,1,1,2,2,5,5,6,6,7,7,8,8,9,9,10,10,11,11,12,12,13,13,14,14],"right_children":[2,4,6,-1,-1,8,10,12,14,16,18,20,22,24,26,-1,-1,-1,-1,-1,-1,-1,-1,-1,-1,-1,-1],"split_conditions":[3.8771927E2,4.1759443E0,-1.9431479E6,8.68915E-3,4.980004E-2,3.1874135E4,1.6877508E1,-2.3443412E7,-1.6835864E7,5.859115E4,9.496662E0,2.908E-5,6.263489E0,1.4919169E-1,3.3763355E4,5.3229433E-2,-3.1390734E-2,-5.4736655E-2,-6.7227604E-3,2.9226303E-2,-6.6985125E-3,-1.3839409E-2,6.6453326E-3,2.086067E-3,5.0338227E-2,4.098403E-2,-1.1104123E-5],"split_indices":[1,4,6,0,0,3,4,6,6,3,2,8,2,7,3,0,0,0,0,0,0,0,0,0,0,0,0],"split_type":[0,0,0,0,0,0,0,0,0,0,0,0,0,0,0,0,0,0,0,0,0,0,0,0,0,0,0],"sum_hessian":[3.5155307E2,2.8577056E0,3.4869537E2,1.2301378E0,1.6275679E0,3.4139783E2,7.2975535E0,1.25543526E2,2.158543E2,2.6957278E0,4.6018257E0,1.724587E1,1.0829765E2,2.2799812E1,1.9305449E2,1.240972E0,1.4547557E0,3.3621695E0,1.2396561E0,1.0637969E1,6.607901E0,8.1283554E1,2.7014103E1,1.3127071E1,9.672741E0,4.149312E0,1.8890517E2],"tree_param":{"num_deleted":"0","num_feature":"9","num_nodes":"27","size_leaf_vector":"1"}},{"base_weights":[3.1080537E-3,1.3944194E-2,-5.7735485E-1,1.1264066E-4,5.1183206E-1,-1.14769965E-1,-5.3256243E-2,5.203959E-2,-1.2923804E-1,-1.5922429E-1,9.813512E-1,2.778229E-2,-5.1449037E-1,-1.500557E-1,1.4012542E-1,-1.1371422E0,-5.771247E-2,3.258671E-2,-6.3714075E-1,8.672137E-3,6.4816974E-2,-4.141229E-2,1.6146469E-3,3.3718501E-3,-1.923469E-2,4.4724243E-3,3.689891E-2,-6.355588E-2,-1.5545435E-2,-3.7209917E-2,6.1952136E-4,-1.060419E-2,-3.8936105E-2],"categories":[],"categories_nodes":[],"categories_segments":[],"categories_sizes":[],"default_left":[0,0,0,0,0,0,0,0,0,0,0,0,0,0,0,0,0,0,0,0,0,0,0,0,0,0,0,0,0,0,0,0,0],"id":30,"left_children":[1,3,5,7,9,11,-1,13,15,17,19,-1,21,23,25,27,29,-1,31,-1,-1,-1,-1,-1,-1,-1,-1,-1,-1,-1,-1,-1,-1],"loss_changes":[2.2240324E0,2.388365E0,1.3398466E0,2.2800174E0,3.109842E0,1.477462E0,0E0,4.3328476E0,6.944194E0,2.2443187E0,1.2142382E0,0E0,5.9372336E-1,3.8027215E0,5.0604706E0,3.120966E-1,4.429289E0,0E0,4.3974996E-2,0E0,0E0,0E0,0E0,0E0,0E0,0E0,0E0,0E0,0E0,0E0,0E0,0E0,0E0],"parents":[2147483647,0,0,1,1,2,2,3,3,4,4,5,5,7,7,8,8,9,9,10,10,12,12,13,13,14,14,15,15,16,16,18,18],"right_children":[2,4,6,8,10,12,-1,14,16,18,20,-1,22,24,26,28,30,-1,32,-1,-1,-1,-1,-1,-1,-1,-1,-1,-1,-1,-1,-1,-1],"split_conditions":[9.9708734E4,9.721919E4,4.3744277E3,7.5187844E-1,1E-4,4.4935352E1,-5.3256243E-2,-2.0591807E-1,7.672203E-1,9.800448E4,-2.3656638E-1,2.778229E-2,8.66E-5,-3.835818E-1,1.6972E-4,1.0545165E1,5.3909515E1,3.258671E-2,1.8605195E-2,8.672137E-3,6.4816974E-2,-4.141229E-2,1.6146469E-3,3.3718501E-3,-1.923469E-2,4.4724243E-3,3.689891E-2,-6.355588E-2,-1.5545435E-2,-3.7209917E-2,6.1952136E-4,-1.060419E-2,-3.8936105E-2],"split_indices":[3,3,1,5,8,0,0,7,5,3,7,0,8,7,8,2,0,0,7,0,0,0,0,0,0,0,0,0,0,0,0,0,0],"split_type":[0,0,0,0,0,0,0,0,0,0,0,0,0,0,0,0,0,0,0,0,0,0,0,0,0,0,0,0,0,0,0,0,0],"sum_hessian":[3.5130353E2,3.4582364E2,5.479893E0,3.3744937E2,8.374272E0,3.4465733E0,2.0333202E0,2.4121353E2,9.623585E1,3.719329E0,4.654943E0,1.1416681E0,2.304905E0,7.3007935E1,1.682056E2,5.389611E0,9.084624E1,1.244272E0,2.4750571E0,1.7407506E0,2.9141924E0,1.1374515E0,1.1674535E0,3.8258053E1,3.474988E1,1.5612158E2,1.2084017E1,4.1742926E0,1.2153181E0,7.5265307E0,8.33197E1,1.2425685E0,1.2324886E0],"tree_param":{"num_deleted":"0","num_feature":"9","num_nodes":"33","size_leaf_vector":"1"}},{"base_weights":[2.667424E-3,7.63721E-1,-5.7016104E-3,4.8869837E-2,8.537693E-3,1.6750889E-2,-2.6971492E-1,7.881529E-3,5.779816E-2,-8.212501E-2,-7.889296E-1,1.3085105E-1,-5.1924706E-2,-2.890014E-1,7.6886886E-1,1.1939065E-3,-5.5237193E-2,5.600079E-4,1.8941168E-2,-2.6394168E-2,-9.401758E-5,-4.7496296E-3,-5.0472654E-2,1.6347026E-2,4.9746897E-2],"categories":[],"categories_nodes":[],"categories_segments":[],"categories_sizes":[],"default_left":[0,0,0,0,0,0,0,0,0,0,0,0,0,0,0,0,0,0,0,0,0,0,0,0,0],"id":31,"left_children":[1,3,5,-1,-1,7,9,11,-1,13,15,17,19,21,23,-1,-1,-1,-1,-1,-1,-1,-1,-1,-1],"loss_changes":[2.2470286E0,3.1930208E-1,2.074909E0,0E0,0E0,3.252862E0,2.6072123E0,2.3701117E0,0E0,3.9665625E0,1.8655572E0,3.123974E0,5.1657524E0,2.397143E0,1.175468E-1,0E0,0E0,0E0,0E0,0E0,0E0,0E0,0E0,0E0,0E0],"parents":[2147483647,0,0,1,1,2,2,5,5,6,6,7,7,9,9,10,10,11,11,12,12,13,13,14,14],"right_children":[2,4,6,-1,-1,8,10,12,-1,14,16,18,20,22,24,-1,-1,-1,-1,-1,-1,-1,-1,-1,-1],"split_conditions":[3.8771927E2,3.025048E-1,-3.3393305E6,4.8869837E-2,8.537693E-3,-3.3911732E6,8.595588E-1,3.206316E-1,5.779816E-2,1.0070313E1,6.6781166E1,-5.5229287E0,3.6032122E-1,4.9658937E0,1.9434414E1,1.1939065E-3,-5.5237193E-2,5.600079E-4,1.8941168E-2,-2.6394168E-2,-9.401758E-5,-4.7496296E-3,-5.0472654E-2,1.6347026E-2,4.9746897E-2],"split_indices":[1,7,6,0,0,6,5,5,0,2,0,2,5,2,2,0,0,0,0,0,0,0,0,0,0],"split_type":[0,0,0,0,0,0,0,0,0,0,0,0,0,0,0,0,0,0,0,0,0,0,0,0,0],"sum_hessian":[3.511078E2,2.8372982E0,3.4827048E2,1.6091319E0,1.2281662E0,3.2183704E2,2.6433453E1,3.2034985E2,1.4871719E0,2.0268652E1,6.1648006E0,1.044333E2,2.1591656E2,1.6836178E1,3.4324756E0,1.9837183E0,4.1810822E0,7.1148224E1,3.3285072E1,1.9634045E1,1.9628252E2,1.41559925E1,2.6801844E0,1.9895082E0,1.4429674E0],"tree_param":{"num_deleted":"0","num_feature":"9","num_nodes":"25","size_leaf_vector":"1"}},{"base_weights":[2.719257E-3,7.449519E-1,-5.4007964E-3,8.160825E-3,4.7867607E-2,5.51574E-3,-5.4297787E-1,-2.3290863E-2,4.999593E-1,2.6141036E-1,-1.0472904E0,-7.156416E-3,-6.9470173E-1,8.6530554E-1,1.3440534E-1,-1.1070477E-2,3.1255048E-2,-6.705511E-2,-7.610965E-3,-1.1151228E-3,2.6863327E-2,2.7073199E-2,-5.065846E-2,5.129149E-2,3.633035E-5,-2.4294231E-2,3.5468835E-2],"categories":[],"categories_nodes":[],"categories_segments":[],"categories_sizes":[],"default_left":[0,0,0,0,0,0,0,0,0,0,0,0,0,0,0,0,0,0,0,0,0,0,0,0,0,0,0],"id":32,"left_children":[1,3,5,-1,-1,7,9,11,13,15,17,19,21,23,25,-1,-1,-1,-1,-1,-1,-1,-1,-1,-1,-1,-1],"loss_changes":[2.124755E0,3.1513476E-1,2.0514379E0,0E0,0E0,4.898518E0,3.096086E0,3.5175219E0,2.4123178E0,7.497036E-1,9.7297287E-1,2.6386795E0,3.5485127E0,1.2879462E0,4.1422267E0,0E0,0E0,0E0,0E0,0E0,0E0,0E0,0E0,0E0,0E0,0E0,0E0],"parents":[2147483647,0,0,1,1,2,2,5,5,6,6,7,7,8,8,9,9,10,10,11,11,12,12,13,13,14,14],"right_children":[2,4,6,-1,-1,8,10,12,14,16,18,20,22,24,26,-1,-1,-1,-1,-1,-1,-1,-1,-1,-1,-1,-1],"split_conditions":[3.8771927E2,4.1759443E0,8.2136665E1,8.160825E-3,4.7867607E-2,7.277026E1,-1.910097E7,7.059308E1,7.754779E1,8.533077E1,2.8046871E1,1.8320438E1,-4.882423E-1,2.703859E1,1.8320438E1,-1.1070477E-2,3.1255048E-2,-6.705511E-2,-7.610965E-3,-1.1151228E-3,2.6863327E-2,2.7073199E-2,-5.065846E-2,5.129149E-2,3.633035E-5,-2.4294231E-2,3.5468835E-2],"split_indices":[1,4,0,0,0,0,6,0,0,0,2,2,7,2,2,0,0,0,0,0,0,0,0,0,0,0,0],"split_type":[0,0,0,0,0,0,0,0,0,0,0,0,0,0,0,0,0,0,0,0,0,0,0,0,0,0,0],"sum_hessian":[3.5087363E2,2.8150504E0,3.4805856E2,1.2259041E0,1.5891463E0,3.421013E2,5.9572845E0,3.2416794E2,1.793334E1,2.481267E0,3.4760177E0,3.1754773E2,6.6202226E0,8.28547E0,9.64787E0,1.2341188E0,1.247148E0,2.2418122E0,1.2342055E0,3.0988562E2,7.6620936E0,1.212716E0,5.4075065E0,6.830719E0,1.454751E0,4.7155676E0,4.932302E0],"tree_param":{"num_deleted":"0","num_feature":"9","num_nodes":"27","size_leaf_vector":"1"}},{"base_weights":[2.7764027E-3,1.3258841E-2,-5.6279165E-1,3.652424E-2,-2.5945923E-1,-1.130402E-1,-5.1930964E-2,2.7951859E-2,5.611375E-2,-7.97468E-2,-7.5767267E-1,2.6965072E-2,-5.0199074E-1,6.861568E-3,3.812327E-1,-2.7706802E-1,7.358064E-1,9.598622E-4,-5.302558E-2,-4.046929E-2,1.5028751E-3,-6.9356675E-4,2.4708819E-2,3.2459136E-2,-1.5347691E-2,-3.2505702E-2,3.83011E-3,1.5519357E-2,4.7848936E-2],"categories":[],"categories_nodes":[],"categories_segments":[],"categories_sizes":[],"default_left":[0,0,0,0,0,0,0,0,0,0,0,0,0,0,0,0,0,0,0,0,0,0,0,0,0,0,0,0,0],"id":33,"left_children":[1,3,5,7,9,11,-1,13,-1,15,17,-1,19,21,23,25,27,-1,-1,-1,-1,-1,-1,-1,-1,-1,-1,-1,-1],"loss_changes":[2.0927866E0,2.206841E0,1.257299E0,2.9467845E0,2.3879566E0,1.3933415E0,0E0,2.3704154E0,0E0,3.6177561E0,1.6981406E0,0E0,5.6236064E-1,3.0537477E0,3.5044637E0,2.399266E0,1.175611E-1,0E0,0E0,0E0,0E0,0E0,0E0,0E0,0E0,0E0,0E0,0E0,0E0],"parents":[2147483647,0,0,1,1,2,2,3,3,4,4,5,5,7,7,9,9,10,10,12,12,13,13,14,14,15,15,16,16],"right_children":[2,4,6,8,10,12,-1,14,-1,16,18,-1,20,22,24,26,28,-1,-1,-1,-1,-1,-1,-1,-1,-1,-1,-1,-1],"split_conditions":[9.9708734E4,-3.3393305E6,4.3744277E3,-3.3911732E6,8.595588E-1,4.4935352E1,-5.1930964E-2,1.029281E0,5.611375E-2,1.0070313E1,6.6781166E1,2.6965072E-2,8.66E-5,2.1606E-4,2.278242E1,1.8372E-4,1.9434414E1,9.598622E-4,-5.302558E-2,-4.046929E-2,1.5028751E-3,-6.9356675E-4,2.4708819E-2,3.2459136E-2,-1.5347691E-2,-3.2505702E-2,3.83011E-3,1.5519357E-2,4.7848936E-2],"split_indices":[3,6,1,6,5,0,0,5,0,2,0,0,8,8,4,8,2,0,0,0,0,0,0,0,0,0,0,0,0],"split_type":[0,0,0,0,0,0,0,0,0,0,0,0,0,0,0,0,0,0,0,0,0,0,0,0,0,0,0,0,0],"sum_hessian":[3.507438E2,3.4532007E2,5.423728E0,3.1897464E2,2.6345442E1,3.4244802E0,1.9992476E0,3.1749365E2,1.480979E0,2.021403E1,6.131413E0,1.1347463E0,2.289734E0,3.0056958E2,1.6924091E1,1.6807713E1,3.4063175E0,1.982453E0,4.14896E0,1.1208755E0,1.1688584E0,2.8923553E2,1.1334046E1,1.2222036E1,4.7020545E0,7.771868E0,9.035844E0,1.9872553E0,1.4190621E0],"tree_param":{"num_deleted":"0","num_feature":"9","num_nodes":"29","size_leaf_vector":"1"}},{"base_weights":[2.680522E-3,3.0454817E-1,-1.6728979E-2,4.8707586E-4,6.888399E-1,-5.879689E-2,-4.0097437E-3,5.150653E-2,-1.9611007E-1,9.3933153E-1,-9.615862E-3,-4.10543E-2,1.6720326E-1,1.7370497E-1,-5.8669E-1,7.0932223E-3,1.1551981E0,-3.0027712E-2,-4.527289E-2,-1.3288829E-1,4.2976975E-1,4.2958844E-2,-1.8696928E-2,-4.1867793E-2,1.0053008E-2,6.435832E-2,1.49832135E-2,-2.892697E-3,1.7494394E-2,1.97424E-3,-4.3556564E-2,4.9852278E-2,9.927842E-3],"categories":[],"categories_nodes":[],"categories_segments":[],"categories_sizes":[],"default_left":[0,0,0,0,0,0,0,0,0,0,0,0,0,0,0,0,0,0,0,0,0,0,0,0,0,0,0,0,0,0,0,0,0],"id":34,"left_children":[1,3,5,7,9,-1,11,-1,13,15,-1,17,19,21,23,-1,25,27,-1,29,31,-1,-1,-1,-1,-1,-1,-1,-1,-1,-1,-1,-1],"loss_changes":[2.0649755E0,2.4875526E0,4.8797274E0,2.810739E0,2.2563891E0,0E0,2.0915573E0,0E0,1.7862893E0,1.1259403E0,0E0,2.5560405E0,4.6794252E0,2.859473E0,1.3333542E0,0E0,2.642069E-1,2.860234E0,0E0,3.6152081E0,3.936767E0,0E0,0E0,0E0,0E0,0E0,0E0,0E0,0E0,0E0,0E0,0E0,0E0],"parents":[2147483647,0,0,1,1,2,2,3,3,4,4,6,6,8,8,9,9,11,11,12,12,13,13,14,14,16,16,17,17,19,19,20,20],"right_children":[2,4,6,8,10,-1,12,-1,14,16,-1,18,20,22,24,-1,26,28,-1,30,32,-1,-1,-1,-1,-1,-1,-1,-1,-1,-1,-1,-1],"split_conditions":[-2.3332856E7,8.2497296E2,-2.3283216E7,7.3506737E0,4.5106083E-1,-5.879689E-2,5.7140577E-1,5.150653E-2,7.27677E2,9.592821E0,-9.615862E-3,3.1711256E1,1.5514681E1,3.4498298E-1,3.025048E-1,7.0932223E-3,1.0095288E3,1.8320438E1,-4.527289E-2,-1.2786282E7,1.9236868E1,4.2958844E-2,-1.8696928E-2,-4.1867793E-2,1.0053008E-2,6.435832E-2,1.49832135E-2,-2.892697E-3,1.7494394E-2,1.97424E-3,-4.3556564E-2,4.9852278E-2,9.927842E-3],"split_indices":[6,1,6,4,7,0,7,0,1,4,0,2,4,5,7,0,1,2,0,6,4,0,0,0,0,0,0,0,0,0,0,0,0],"split_type":[0,0,0,0,0,0,0,0,0,0,0,0,0,0,0,0,0,0,0,0,0,0,0,0,0,0,0,0,0,0,0,0,0],"sum_hessian":[3.5056943E2,2.0291637E1,3.302778E2,1.1887344E1,8.404293E0,2.5920217E0,3.276858E2,1.2260923E0,1.0661252E1,6.492587E0,1.9117055E0,2.700225E2,5.766329E1,5.7614083E0,4.899843E0,1.7361147E0,4.7564726E0,2.676431E2,2.3793967E0,2.7139265E1,3.0524023E1,2.3060815E0,3.4553268E0,3.6692872E0,1.2305561E0,3.6837296E0,1.0727427E0,2.5016774E2,1.7475363E1,2.2769344E1,4.3699217E0,7.8795295E0,2.2644493E1],"tree_param":{"num_deleted":"0","num_feature":"9","num_nodes":"33","size_leaf_vector":"1"}},{"base_weights":[2.6957276E-3,1.3440913E-2,-5.319795E-1,-1.3035659E-2,4.7275135E-1,2.4243538E-1,-1.0159396E0,4.123374E-2,-1.8597595E-1,8.267288E-1,1.20641135E-1,-1.1144008E-2,2.9892161E-2,-6.5089904E-2,-7.2968835E-3,-1.482215E-1,1.1150282E-1,3.2428673E-1,-3.131685E-1,9.751071E-1,7.74953E-4,-4.6998703E-1,6.720705E-1,2.3136793E-3,-2.1523615E-2,3.560869E-3,3.0492876E-2,6.457086E-2,6.9486904E-3,-3.0928E-2,4.1265963E-3,1.3340175E-2,7.028467E-2,2.9582191E-2,-5.9497815E-2,5.537329E-2,-6.810172E-3],"categories":[],"categories_nodes":[],"categories_segments":[],"categories_sizes":[],"default_left":[0,0,0,0,0,0,0,0,0,0,0,0,0,0,0,0,0,0,0,0,0,0,0,0,0,0,0,0,0,0,0,0,0,0,0,0,0],"id":35,"left_children":[1,3,5,7,9,11,13,15,17,19,21,-1,-1,-1,-1,23,25,27,29,31,-1,33,35,-1,-1,-1,-1,-1,-1,-1,-1,-1,-1,-1,-1,-1,-1],"loss_changes":[2.0249896E0,4.2050853E0,2.84881E0,3.0807507E0,2.2491312E0,7.084182E-1,9.207139E-1,3.3453228E0,5.189159E0,1.0955191E0,3.7741873E0,0E0,0E0,0E0,0E0,3.7572298E0,3.6298447E0,2.7118149E0,7.6952515E0,1.998981E0,0E0,5.0726047E0,2.2282112E0,0E0,0E0,0E0,0E0,0E0,0E0,0E0,0E0,0E0,0E0,0E0,0E0,0E0,0E0],"parents":[2147483647,0,0,1,1,2,2,3,3,4,4,5,5,6,6,7,7,8,8,9,9,10,10,15,15,16,16,17,17,18,18,19,19,21,21,22,22],"right_children":[2,4,6,8,10,12,14,16,18,20,22,-1,-1,-1,-1,24,26,28,30,32,-1,34,36,-1,-1,-1,-1,-1,-1,-1,-1,-1,-1,-1,-1,-1,-1],"split_conditions":[8.2136665E1,7.277026E1,-1.910097E7,7.5187844E-1,7.754779E1,8.533077E1,2.8046871E1,-2.3905747E-1,-2.8983507E-1,2.703859E1,1.8320438E1,-1.1144008E-2,2.9892161E-2,-6.5089904E-2,-7.2968835E-3,-3.835818E-1,1.6972E-4,2.1842875E0,9.178539E-1,8.379437E-1,7.74953E-4,1.0171396E1,-1.3534265E7,2.3136793E-3,-2.1523615E-2,3.560869E-3,3.0492876E-2,6.457086E-2,6.9486904E-3,-3.0928E-2,4.1265963E-3,1.3340175E-2,7.028467E-2,2.9582191E-2,-5.9497815E-2,5.537329E-2,-6.810172E-3],"split_indices":[0,0,6,5,0,0,2,7,7,2,2,0,0,0,0,7,8,2,5,5,0,2,6,0,0,0,0,0,0,0,0,0,0,0,0,0,0],"split_type":[0,0,0,0,0,0,0,0,0,0,0,0,0,0,0,0,0,0,0,0,0,0,0,0,0,0,0,0,0,0,0,0,0,0,0,0,0],"sum_hessian":[3.5022275E2,3.4427875E2,5.943991E0,3.2643338E2,1.7845364E1,2.4779415E0,3.4660497E0,2.4904391E2,7.7389465E1,8.226905E0,9.61846E0,1.23453E0,1.2434115E0,2.2352822E0,1.2307675E0,6.707934E1,1.8196458E2,1.5132463E1,6.2257E1,6.7840543E0,1.4428505E0,4.7154746E0,4.902985E0,4.0208366E1,2.6870968E1,1.6941269E2,1.255189E1,1.47351E0,1.3658954E1,3.4820343E1,2.7436659E1,3.177226E0,3.606828E0,1.9776167E0,2.737858E0,2.9459305E0,1.9570544E0],"tree_param":{"num_deleted":"0","num_feature":"9","num_nodes":"37","size_leaf_vector":"1"}},{"base_weights":[2.8726363E-3,1.3094098E-2,-5.5155605E-1,-1.8833927E-4,4.9163684E-1,6.506002E-3,-8.0843616E-1,7.737791E-2,-8.065065E-2,-3.0858954E-2,7.3806924E-1,-5.2441627E-2,-2.9895583E-3,2.869043E-2,1.3217121E0,-2.6453665E-1,9.484652E-2,-1.7642632E-2,9.8453647E-1,-1.2103154E-2,6.0650455E-3,1.3641546E-2,8.2381696E-2,2.050693E-2,-1.7903807E-2,5.1356923E-2,1.5335267E-3,5.724066E-2,7.008977E-3],"categories":[],"categories_nodes":[],"categories_segments":[],"categories_sizes":[],"default_left":[0,0,0,0,0,0,0,0,0,0,0,0,0,0,0,0,0,0,0,0,0,0,0,0,0,0,0,0,0],"id":36,"left_children":[1,3,5,7,9,-1,11,13,15,-1,17,-1,-1,19,21,23,25,-1,27,-1,-1,-1,-1,-1,-1,-1,-1,-1,-1],"loss_changes":[1.9965951E0,2.1971996E0,1.2220091E0,2.1115544E0,3.0064297E0,0E0,7.959113E-1,1.0398496E1,5.3841677E0,0E0,2.5235143E0,0E0,0E0,4.211826E0,1.7603102E0,5.2811975E0,5.0963163E0,0E0,7.6865816E-1,0E0,0E0,0E0,0E0,0E0,0E0,0E0,0E0,0E0,0E0],"parents":[2147483647,0,0,1,1,2,2,3,3,4,4,6,6,7,7,8,8,10,10,13,13,14,14,15,15,16,16,18,18],"right_children":[2,4,6,8,10,-1,12,14,16,-1,18,-1,-1,20,22,24,26,-1,28,-1,-1,-1,-1,-1,-1,-1,-1,-1,-1],"split_conditions":[9.9708734E4,9.721919E4,4.288207E1,5.222419E-1,-4.761724E-1,6.506002E-3,1.4615724E1,5.375889E1,6.263489E0,-3.0858954E-2,4.333554E1,-5.2441627E-2,-2.9895583E-3,-2.530685E-1,4.3833145E-1,-4.8055366E-1,-2.1616326E7,-1.7642632E-2,9.94844E4,-1.2103154E-2,6.0650455E-3,1.3641546E-2,8.2381696E-2,2.050693E-2,-1.7903807E-2,5.1356923E-2,1.5335267E-3,5.724066E-2,7.008977E-3],"split_indices":[3,3,0,5,7,0,4,0,2,0,0,0,0,7,5,2,6,0,3,0,0,0,0,0,0,0,0,0,0],"split_type":[0,0,0,0,0,0,0,0,0,0,0,0,0,0,0,0,0,0,0,0,0,0,0,0,0,0,0,0,0],"sum_hessian":[3.500407E2,3.4466287E2,5.3778315E0,3.363274E2,8.335501E0,1.6069554E0,3.7708762E0,1.7126501E2,1.6506238E2,1.2421271E0,7.0933733E0,2.5508134E0,1.2200627E0,1.6580074E2,5.464283E0,8.035696E1,8.4705414E1,1.2276895E0,5.8656836E0,4.1846283E1,1.23954445E2,1.7309257E0,3.7333572E0,9.372312E0,7.098465E1,4.488946E0,8.021647E1,4.630817E0,1.2348666E0],"tree_param":{"num_deleted":"0","num_feature":"9","num_nodes":"29","size_leaf_vector":"1"}},{"base_weights":[3.049489E-3,2.9864168E-1,-1.5895769E-2,7.236578E-3,6.6718346E-1,-5.7015624E-2,-3.6868397E-3,5.0721485E-2,-1.8600121E-1,9.125131E-1,-9.363154E-3,1.188527E-1,-5.1404737E-2,1.7085056E-1,-5.626991E-1,7.1119606E-3,1.1224577E0,-1.1525885E-2,5.232455E-1,-7.969526E-2,3.7875476E-1,4.171535E-2,-1.7840253E-2,-4.0129118E-2,9.512888E-3,6.258264E-2,1.4486206E-2,1.3828106E-2,-1.5443645E-2,-2.2838565E-3,4.5235924E-2,-9.895951E-4,-1.3314567E-2,3.4822192E-2,-3.1692922E-2],"categories":[],"categories_nodes":[],"categories_segments":[],"categories_sizes":[],"default_left":[0,0,0,0,0,0,0,0,0,0,0,0,0,0,0,0,0,0,0,0,0,0,0,0,0,0,0,0,0,0,0,0,0,0,0],"id":37,"left_children":[1,3,5,7,9,-1,11,-1,13,15,-1,17,19,21,23,-1,25,27,29,31,33,-1,-1,-1,-1,-1,-1,-1,-1,-1,-1,-1,-1,-1,-1],"loss_changes":[1.9690071E0,2.2695107E0,4.533959E0,2.687174E0,2.1287537E0,0E0,1.9242167E0,0E0,1.6576031E0,1.0413718E0,0E0,4.869253E0,2.9118145E0,2.654454E0,1.2154225E0,0E0,2.496357E-1,6.1442466E0,4.926561E0,2.487434E0,5.1980696E0,0E0,0E0,0E0,0E0,0E0,0E0,0E0,0E0,0E0,0E0,0E0,0E0,0E0,0E0],"parents":[2147483647,0,0,1,1,2,2,3,3,4,4,6,6,8,8,9,9,11,11,12,12,13,13,14,14,16,16,17,17,18,18,19,19,20,20],"right_children":[2,4,6,8,10,-1,12,-1,14,16,-1,18,20,22,24,-1,26,28,30,32,34,-1,-1,-1,-1,-1,-1,-1,-1,-1,-1,-1,-1,-1,-1],"split_conditions":[-2.3332856E7,8.2497296E2,-2.3283216E7,7.3506737E0,4.5106083E-1,-5.7015624E-2,4.3707184E1,5.0721485E-2,7.27677E2,9.592821E0,-9.363154E-3,4.1652435E1,4.089187E1,3.4498298E-1,3.025048E-1,7.1119606E-3,1.0095288E3,8.966E-5,-5.237832E0,2.8615225E3,8.9676255E-1,4.171535E-2,-1.7840253E-2,-4.0129118E-2,9.512888E-3,6.258264E-2,1.4486206E-2,1.3828106E-2,-1.5443645E-2,